{"learner":{"attributes":{"scikit_learn":"{\"_estimator_type\": \"classifier\"}"},"feature_names":[],"feature_types":[],"gradient_booster":{"model":{"cats":{"enc":[],"feature_segments":[],"sorted_idx":[]},"gbtree_model_param":{"num_parallel_tree":"1","num_trees":"500"},"iteration_indptr":[0,5,10,15,20,25,30,35,40,45,50,55,60,65,70,75,80,85,90,95,100,105,110,115,120,125,130,135,140,145,150,155,160,165,170,175,180,185,190,195,200,205,210,215,220,225,230,235,240,245,250,255,260,265,270,275,280,285,290,295,300,305,310,315,320,325,330,335,340,345,350,355,360,365,370,375,380,385,390,395,400,405,410,415,420,425,430,435,440,445,450,455,460,465,470,475,480,485,490,495,500],"tree_info":[0,1,2,3,4,0,1,2,3,4,0,1,2,3,4,0,1,2,3,4,0,1,2,3,4,0,1,2,3,4,0,1,2,3,4,0,1,2,3,4,0,1,2,3,4,0,1,2,3,4,0,1,2,3,4,0,1,2,3,4,0,1,2,3,4,0,1,2,3,4,0,1,2,3,4,0,1,2,3,4,0,1,2,3,4,0,1,2,3,4,0,1,2,3,4,0,1,2,3,4,0,1,2,3,4,0,1,2,3,4,0,1,2,3,4,0,1,2,3,4,0,1,2,3,4,0,1,2,3,4,0,1,2,3,4,0,1,2,3,4,0,1,2,3,4,0,1,2,3,4,0,1,2,3,4,0,1,2,3,4,0,1,2,3,4,0,1,2,3,4,0,1,2,3,4,0,1,2,3,4,0,1,2,3,4,0,1,2,3,4,0,1,2,3,4,0,1,2,3,4,0,1,2,3,4,0,1,2,3,4,0,1,2,3,4,0,1,2,3,4,0,1,2,3,4,0,1,2,3,4,0,1,2,3,4,0,1,2,3,4,0,1,2,3,4,0,1,2,3,4,0,1,2,3,4,0,1,2,3,4,0,1,2,3,4,0,1,2,3,4,0,1,2,3,4,0,1,2,3,4,0,1,2,3,4,0,1,2,3,4,0,1,2,3,4,0,1,2,3,4,0,1,2,3,4,0,1,2,3,4,0,1,2,3,4,0,1,2,3,4,0,1,2,3,4,0,1,2,3,4,0,1,2,3,4,0,1,2,3,4,0,1,2,3,4,0,1,2,3,4,0,1,2,3,4,0,1,2,3,4,0,1,2,3,4,0,1,2,3,4,0,1,2,3,4,0,1,2,3,4,0,1,2,3,4,0,1,2,3,4,0,1,2,3,4,0,1,2,3,4,0,1,2,3,4,0,1,2,3,4,0,1,2,3,4,0,1,2,3,4,0,1,2,3,4,0,1,2,3,4,0,1,2,3,4,0,1,2,3,4,0,1,2,3,4,0,1,2,3,4,0,1,2,3,4,0,1,2,3,4,0,1,2,3,4,0,1,2,3,4,0,1,2,3,4,0,1,2,3,4,0,1,2,3,4,0,1,2,3,4,0,1,2,3,4,0,1,2,3,4],"trees":[{"base_weights":[-4.6742147E-1,-1.7994455E-1,2.46952E0,2.6219451E0,-9.517799E-2,8.455474E-1,1.2549506E0,-1.0510136E-1,6.169518E-1],"categories":[],"categories_nodes":[],"categories_segments":[],"categories_sizes":[],"default_left":[0,0,0,1,0,0,0,0,0],"id":0,"left_children":[1,-1,3,5,-1,-1,7,-1,-1],"loss_changes":[2.1286436E2,0E0,1.0875534E1,2.5152893E0,0E0,0E0,6.683611E0,0E0,0E0],"parents":[2147483647,0,0,2,2,3,3,6,6],"right_children":[2,-1,4,6,-1,-1,8,-1,-1],"split_conditions":[1.2812295E0,-1.7994455E-1,-5.548087E-2,7.002762E-2,-9.517799E-2,8.455474E-1,1.468833E0,-1.0510136E-1,6.169518E-1],"split_indices":[1,0,2,3,0,0,1,0,0],"split_type":[0,0,0,0,0,0,0,0,0],"sum_hessian":[5.4263556E2,5.199908E2,2.264476E1,2.15265E1,1.1182598E0,1.7892157E1,3.6343443E0,1.3978248E0,2.2365196E0],"tree_param":{"num_deleted":"0","num_feature":"6","num_nodes":"9","size_leaf_vector":"1"}},{"base_weights":[3.1170702E-1,-1.9344893E-1,1.6996925E0,1.9302479E0,-3.181401E-1,9.650788E-1,2.0850692E0,-4.446435E-1,3.864701E-1,1.9341648E0,-1.8070622E-1,2.1121204E0,-1.3142185E-1,-1.8565087E-1,3.6994892E-1,6.3113725E-1,-1.1318154E-1,2.1440482E0,1.6313526E-1,4.2157704E-1,-1.4293994E-1,6.4724904E-1,3.403948E-1,-1.3142185E-1,2.615572E-1],"categories":[],"categories_nodes":[],"categories_segments":[],"categories_sizes":[],"default_left":[0,0,0,0,0,1,0,1,0,0,0,1,0,0,0,0,0,1,0,0,0,0,0,0,0],"id":1,"left_children":[1,-1,3,5,7,9,11,13,-1,15,-1,17,-1,-1,19,-1,-1,21,23,-1,-1,-1,-1,-1,-1],"loss_changes":[9.0544684E2,0E0,1.3003009E2,3.5314575E1,6.543955E0,5.6444046E1,1.5559204E1,4.199505E0,0E0,9.704094E0,0E0,1.2861206E1,0E0,0E0,5.537791E0,0E0,0E0,3.8635254E-1,2.301122E0,0E0,0E0,0E0,0E0,0E0,0E0],"parents":[2147483647,0,0,2,2,3,3,4,4,5,5,6,6,7,7,9,9,11,11,14,14,17,17,18,18],"right_children":[2,-1,4,6,8,10,12,14,-1,16,-1,18,-1,-1,20,-1,-1,22,24,-1,-1,-1,-1,-1,-1],"split_conditions":[3.8073254E-1,-1.9344893E-1,1.2812295E0,3.9348957E-1,-5.548087E-2,-2.5920057E-1,9.112223E-1,7.002762E-2,3.864701E-1,-3.3482343E-3,-1.8070622E-1,6.431286E-1,-1.3142185E-1,-1.8565087E-1,1.468833E0,6.3113725E-1,-1.1318154E-1,5.089986E-1,7.184189E-1,4.2157704E-1,-1.4293994E-1,6.4724904E-1,3.403948E-1,-1.3142185E-1,2.615572E-1],"split_indices":[1,0,1,1,2,3,2,3,0,2,0,3,0,0,1,0,0,3,1,0,0,0,0,0,0],"split_type":[0,0,0,0,0,0,0,0,0,0,0,0,0,0,0,0,0,0,0,0,0,0,0,0,0],"sum_hessian":[6.80162E2,4.0298108E2,2.771809E2,2.4879701E2,2.8383884E1,3.539225E1,2.1340477E2,2.6982212E1,1.4016733E0,2.1725937E1,1.3666315E1,2.1130225E2,2.10251E0,2.2426773E1,4.555438E0,2.0324263E1,1.4016733E0,2.0779807E2,3.5041833E0,1.7520916E0,2.8033466E0,2.0394347E2,3.8546016E0,2.10251E0,1.4016733E0],"tree_param":{"num_deleted":"0","num_feature":"6","num_nodes":"25","size_leaf_vector":"1"}},{"base_weights":[4.1130412E-1,9.61835E-1,-5.8668816E-1,-6.3323426E-1,1.7790095E0,-6.21196E-1,3.3630753E-1,-1.9571956E-1,-1.4745544E-1,1.9580431E0,4.7429878E-1,-1.9610262E-1,-4.0545678E-1,1.2109381E0,-3.847032E-1,3.277406E-1,-1.6468133E-1,2.0280426E0,-1.721203E-1,-5.792258E-1,1.7431884E0,4.67517E-1,-1.9079378E-1,4.5102924E-1,4.0723577E-2,-1.5762126E-1,4.0723577E-2,6.1957467E-1,1.2778153E0,-1.8731919E-1,4.0723577E-2,5.858749E-1,3.748983E-1,-1.5091193E-1,5.4785806E-1,-1.16746716E-1,3.277406E-1],"categories":[],"categories_nodes":[],"categories_segments":[],"categories_sizes":[],"default_left":[0,0,1,0,0,1,0,0,0,1,0,0,0,0,0,0,0,1,0,0,0,0,0,0,0,0,0,0,0,0,0,0,0,0,0,0,0],"id":2,"left_children":[1,3,5,7,9,11,13,-1,15,17,19,-1,21,23,25,-1,-1,27,-1,29,31,-1,-1,-1,-1,-1,-1,-1,33,-1,-1,-1,35,-1,-1,-1,-1],"loss_changes":[3.8875162E2,5.951416E2,8.229126E0,1.3478966E0,6.952258E1,1.4382782E0,6.597822E0,0E0,4.1736174E0,4.8108826E1,5.1423927E1,0E0,1.658293E1,1.2535257E0,5.1719344E-1,0E0,0E0,4.562134E0,0E0,7.744608E-1,4.2487755E0,0E0,0E0,0E0,0E0,0E0,0E0,0E0,1.5384367E1,0E0,0E0,0E0,2.3684163E0,0E0,0E0,0E0,0E0],"parents":[2147483647,0,0,1,1,2,2,3,3,4,4,5,5,6,6,8,8,9,9,10,10,12,12,13,13,14,14,17,17,19,19,20,20,28,28,32,32],"right_children":[2,4,6,8,10,12,14,-1,16,18,20,-1,22,24,26,-1,-1,28,-1,30,32,-1,-1,-1,-1,-1,-1,-1,34,-1,-1,-1,36,-1,-1,-1,-1],"split_conditions":[3.9348957E-1,-4.4472295E-1,5.089986E-1,-5.1976436E-1,3.8073254E-1,7.002762E-2,7.184189E-1,-1.9571956E-1,-3.421173E-1,1.0699059E0,-2.5920057E-1,-1.9610262E-1,5.323162E-1,6.8259746E-1,-5.639816E-1,3.277406E-1,-1.6468133E-1,3.6267492E-1,-1.721203E-1,-3.563342E-2,5.748442E-1,4.67517E-1,-1.9079378E-1,4.5102924E-1,4.0723577E-2,-1.5762126E-1,4.0723577E-2,6.1957467E-1,-2.6987648E-1,-1.8731919E-1,4.0723577E-2,5.858749E-1,-5.584606E-2,-1.5091193E-1,5.4785806E-1,-1.16746716E-1,3.277406E-1],"split_indices":[1,1,3,1,1,3,1,0,3,3,3,0,1,0,0,0,0,3,0,2,3,0,0,0,0,0,0,0,1,0,0,0,2,0,0,0,0],"split_type":[0,0,0,0,0,0,0,0,0,0,0,0,0,0,0,0,0,0,0,0,0,0,0,0,0,0,0,0,0,0,0,0,0,0,0,0,0],"sum_hessian":[7.055331E2,4.5472534E2,2.5080774E2,1.5411954E2,3.006058E2,2.42084E2,8.723747E0,1.4794022E2,6.1793213E0,2.6389337E2,3.6712437E1,2.0864296E2,3.3441032E1,3.6348948E0,5.088853E0,1.0904684E0,5.088853E0,2.5698706E2,6.9063E0,2.0355412E1,1.6357027E1,2.9079158E0,3.0533115E1,2.5444264E0,1.0904684E0,3.9983842E0,1.0904684E0,2.4317445E2,1.38126E1,1.9264942E1,1.0904684E0,1.38126E1,2.5444264E0,3.2714052E0,1.0541195E1,1.4539579E0,1.0904684E0],"tree_param":{"num_deleted":"0","num_feature":"6","num_nodes":"37","size_leaf_vector":"1"}},{"base_weights":[-5.375439E-1,7.507923E-1,-5.690768E-1,-5.840185E-1,7.2438115E-1,-5.935001E-1,3.0088013E-1,5.674651E-1,-6.27151E-2,-5.95419E-1,4.8810657E-2,4.542552E-1,-1.4030385E-1,-1.2788042E-1,1.4868742E-1,-2.0134959E-1,-1.7920253E-1,-1.1816469E-1,4.8810657E-2],"categories":[],"categories_nodes":[],"categories_segments":[],"categories_sizes":[],"default_left":[0,0,1,1,0,0,0,0,0,0,0,0,0,0,0,0,0,0,0],"id":3,"left_children":[1,-1,3,5,7,9,11,-1,13,15,-1,-1,-1,-1,-1,17,-1,-1,-1],"loss_changes":[5.2689117E1,0E0,1.0667648E1,4.579941E0,6.089842E0,8.505249E-1,6.512778E0,0E0,1.1957251E0,2.723999E-1,0E0,0E0,0E0,0E0,0E0,3.4619814E-1,0E0,0E0,0E0],"parents":[2147483647,0,0,2,2,3,3,4,4,5,5,6,6,8,8,9,9,15,15],"right_children":[2,-1,4,6,8,10,12,-1,14,16,-1,-1,-1,-1,-1,18,-1,-1,-1],"split_conditions":[-3.7465448E0,7.507923E-1,3.7281187E0,-3.6984116E-2,-1.9455512E0,1.1229779E1,-2.1804307E0,5.674651E-1,4.386575E0,-3.2962966E0,4.8810657E-2,4.542552E-1,-1.4030385E-1,-1.2788042E-1,1.4868742E-1,-3.371338E0,-1.7920253E-1,-1.1816469E-1,4.8810657E-2],"split_indices":[1,0,3,4,1,2,1,0,3,1,0,0,0,0,0,1,0,0,0],"split_type":[0,0,0,0,0,0,0,0,0,0,0,0,0,0,0,0,0,0,0],"sum_hessian":[5.3375696E2,4.674842E0,5.290821E2,5.2358234E2,5.499814E0,5.183575E2,5.2248235E0,1.6499443E0,3.84987E0,5.172575E2,1.0999628E0,1.6499443E0,3.5748792E0,2.4749165E0,1.3749535E0,3.0248978E0,5.142326E2,1.924935E0,1.0999628E0],"tree_param":{"num_deleted":"0","num_feature":"6","num_nodes":"19","size_leaf_vector":"1"}},{"base_weights":[6.161638E-2,2.216E0,-5.4382306E-1,-1.590068E-1,2.3338385E0,-5.839658E-1,1.8233503E0,2.3841407E0,5.285168E-1,-5.941895E-1,3.8705114E-1,5.9587055E-1,1.5606478E-1,7.263721E-1,1.118586E0,-1.2395622E-1,3.8705114E-1,-6.0185112E-2,-6.187897E-1,-1.0591509E-1,4.9544537E-1,-5.398811E-1,5.788949E-1,-6.209409E-1,-2.1754753E-2,-1.7723034E-1,2.507484E-2,-1.3501166E-1,-1.8758021E-1],"categories":[],"categories_nodes":[],"categories_segments":[],"categories_sizes":[],"default_left":[0,0,1,0,1,0,0,1,0,0,0,0,0,0,0,0,0,1,1,0,0,0,0,0,0,0,0,0,0],"id":4,"left_children":[1,3,5,-1,7,9,11,13,15,17,-1,-1,-1,-1,19,-1,-1,21,23,-1,-1,25,-1,27,-1,-1,-1,-1,-1],"loss_changes":[8.191558E2,4.5816467E1,4.765811E1,0E0,1.0752808E1,1.001944E1,7.537422E-1,3.3208008E0,4.0266447E0,6.2811127E0,0E0,0E0,0E0,0E0,4.9087934E0,0E0,0E0,2.2317142E1,4.9519348E-1,0E0,0E0,6.439543E-1,0E0,5.706787E-2,0E0,0E0,0E0,0E0,0E0],"parents":[2147483647,0,0,1,1,2,2,4,4,5,5,6,6,7,7,8,8,9,9,14,14,17,17,18,18,21,21,23,23],"right_children":[2,4,6,-1,8,10,12,14,16,18,-1,-1,-1,-1,20,-1,-1,22,24,-1,-1,26,-1,28,-1,-1,-1,-1,-1],"split_conditions":[-4.4472295E-1,-3.7465448E0,1.0699059E0,-1.590068E-1,3.7281187E0,4.923583E0,3.2445148E-1,-3.6984116E-2,-1.9455512E0,-2.9464012E-1,3.8705114E-1,5.9587055E-1,1.5606478E-1,7.263721E-1,-2.6959653E0,-1.2395622E-1,3.8705114E-1,1.4318945E-1,8.333493E-1,-1.0591509E-1,4.9544537E-1,-5.5824894E-2,5.788949E-1,-2.6987648E-1,-2.1754753E-2,-1.7723034E-1,2.507484E-2,-1.3501166E-1,-1.8758021E-1],"split_indices":[1,1,3,0,3,2,1,4,1,1,0,0,0,0,1,0,0,3,3,0,0,2,0,1,0,0,0,0,0],"split_type":[0,0,0,0,0,0,0,0,0,0,0,0,0,0,0,0,0,0,0,0,0,0,0,0,0,0,0,0,0],"sum_hessian":[6.26095E2,1.3676675E2,4.8932825E2,5.483573E0,1.3128319E2,4.819093E2,7.4189515E0,1.2741243E2,3.8707573E0,4.799739E2,1.9353787E0,6.1286993E0,1.2902524E0,1.22896545E2,4.5158834E0,1.9353787E0,1.9353787E0,2.1289165E1,4.5868475E2,1.2902524E0,3.2256312E0,1.774097E1,3.5481942E0,4.5674936E2,1.9353787E0,1.6450718E1,1.2902524E0,1.38702135E1,4.4287915E2],"tree_param":{"num_deleted":"0","num_feature":"6","num_nodes":"29","size_leaf_vector":"1"}},{"base_weights":[-4.3178427E-1,-1.7217779E-1,1.2404503E0,3.8844872E-1,-9.072207E-2],"categories":[],"categories_nodes":[],"categories_segments":[],"categories_sizes":[],"default_left":[0,0,0,0,0],"id":5,"left_children":[1,-1,3,-1,-1],"loss_changes":[1.0984814E2,0E0,3.4359589E0,0E0,0E0],"parents":[2147483647,0,0,2,2],"right_children":[2,-1,4,-1,-1],"split_conditions":[1.2812295E0,-1.7217779E-1,-5.548087E-2,3.8844872E-1,-9.072207E-2],"split_indices":[1,0,2,0,0],"split_type":[0,0,0,0,0],"sum_hessian":[4.5814532E2,4.2285867E2,3.528664E1,3.4240574E1,1.0460669E0],"tree_param":{"num_deleted":"0","num_feature":"6","num_nodes":"5","size_leaf_vector":"1"}},{"base_weights":[2.3965034E-1,-1.810287E-1,1.0224638E0,1.119764E0,-2.6053417E-1,6.5342695E-1,1.1825012E0,-3.8955146E-1,2.8500447E-1,1.1328818E0,-1.6793978E-1,1.1945014E0,-1.23259105E-1,-1.7225206E-1,3.0148575E-1,3.6442184E-1,-1.0871728E-1,1.2030807E0,-1.10549584E-1,3.009148E-1,-1.3246013E-1,3.709119E-1,3.0212712E-1],"categories":[],"categories_nodes":[],"categories_segments":[],"categories_sizes":[],"default_left":[0,0,0,0,0,1,0,1,0,0,0,1,0,0,0,0,0,1,0,0,0,0,0],"id":6,"left_children":[1,-1,3,5,7,9,11,13,-1,15,-1,17,-1,-1,19,-1,-1,21,-1,-1,-1,-1,-1],"loss_changes":[4.5382947E2,0E0,4.479001E1,8.926392E0,4.421196E0,2.4800947E1,6.054291E0,3.2541115E0,0E0,4.1254997E0,0E0,4.3193054E0,0E0,0E0,3.438819E0,0E0,0E0,6.321411E-1,0E0,0E0,0E0,0E0,0E0],"parents":[2147483647,0,0,2,2,3,3,4,4,5,5,6,6,7,7,9,9,11,11,14,14,17,17],"right_children":[2,-1,4,6,8,10,12,14,-1,16,-1,18,-1,-1,20,-1,-1,22,-1,-1,-1,-1,-1],"split_conditions":[3.8073254E-1,-1.810287E-1,1.2812295E0,3.9348957E-1,-5.548087E-2,-2.5920057E-1,9.112223E-1,7.002762E-2,2.8500447E-1,-3.3482343E-3,-1.6793978E-1,9.6260184E-1,-1.23259105E-1,-1.7225206E-1,1.468833E0,3.6442184E-1,-1.0871728E-1,7.002762E-2,-1.10549584E-1,3.009148E-1,-1.3246013E-1,3.709119E-1,3.0212712E-1],"split_indices":[1,0,1,1,2,3,2,3,0,2,0,3,0,0,1,0,0,3,0,0,0,0,0],"split_type":[0,0,0,0,0,0,0,0,0,0,0,0,0,0,0,0,0,0,0,0,0,0,0],"sum_hessian":[6.8571277E2,3.302583E2,3.5545447E2,3.30516E2,2.4938478E1,4.0545975E1,2.8997E2,2.3149467E1,1.7890097E0,2.910872E1,1.1437252E1,2.8805093E2,1.9190712E0,1.8402143E1,4.7473245E0,2.777577E1,1.3329515E0,2.867075E2,1.3434532E0,2.2617774E0,2.4855473E0,2.4053941E2,4.6168083E1],"tree_param":{"num_deleted":"0","num_feature":"6","num_nodes":"23","size_leaf_vector":"1"}},{"base_weights":[3.141971E-1,6.609262E-1,-5.332791E-1,-5.8473265E-1,1.0730754E0,-5.7101715E-1,2.7468243E-1,-1.8214178E-1,-6.7006275E-2,1.1492542E0,3.666247E-1,-1.8248998E-1,-3.3528882E-1,8.9682454E-1,-3.522427E-1,2.986899E-1,-1.4929108E-1,1.1799127E0,-1.5908593E-1,-5.272182E-1,1.0868036E0,3.8244763E-1,-1.7707191E-1,3.2794753E-1,3.0231908E-2,-1.5088126E-1,5.2679505E-2,3.6192322E-1,8.9717376E-1,-1.7324674E-1,3.994749E-2,3.5263798E-1,3.1951934E-1,-1.6579695E-1,3.352884E-1,-1.0687448E-1,2.5409898E-1],"categories":[],"categories_nodes":[],"categories_segments":[],"categories_sizes":[],"default_left":[0,0,1,0,0,1,0,0,0,1,0,0,0,0,0,0,0,1,0,0,0,0,0,0,0,0,0,0,0,0,0,0,0,0,0,0,0],"id":7,"left_children":[1,3,5,7,9,11,13,-1,15,17,19,-1,21,23,25,-1,-1,27,-1,29,31,-1,-1,-1,-1,-1,-1,-1,33,-1,-1,-1,35,-1,-1,-1,-1],"loss_changes":[2.1255757E2,2.6396838E2,6.5669327E0,1.4461479E0,2.0339447E1,1.5640717E0,4.238252E0,0E0,3.442878E0,1.8532074E1,2.568994E1,0E0,1.294455E1,7.2278786E-1,5.4385126E-1,0E0,0E0,1.4786377E0,0E0,6.7722034E-1,1.1165199E0,0E0,0E0,0E0,0E0,0E0,0E0,0E0,1.1226448E1,0E0,0E0,0E0,1.601098E0,0E0,0E0,0E0,0E0],"parents":[2147483647,0,0,1,1,2,2,3,3,4,4,5,5,6,6,8,8,9,9,10,10,12,12,13,13,14,14,17,17,19,19,20,20,28,28,32,32],"right_children":[2,4,6,8,10,12,14,-1,16,18,20,-1,22,24,26,-1,-1,28,-1,30,32,-1,-1,-1,-1,-1,-1,-1,34,-1,-1,-1,36,-1,-1,-1,-1],"split_conditions":[3.9348957E-1,-4.4472295E-1,5.089986E-1,-5.1976436E-1,3.8073254E-1,7.002762E-2,7.184189E-1,-1.8214178E-1,-3.421173E-1,1.0699059E0,-2.5920057E-1,-1.8248998E-1,5.323162E-1,6.8259746E-1,-4.135615E-2,2.986899E-1,-1.4929108E-1,1.4318945E-1,-1.5908593E-1,-3.563342E-2,5.748442E-1,3.8244763E-1,-1.7707191E-1,3.2794753E-1,3.0231908E-2,-1.5088126E-1,5.2679505E-2,3.6192322E-1,-2.9464012E-1,-1.7324674E-1,3.994749E-2,3.5263798E-1,-5.584606E-2,-1.6579695E-1,3.352884E-1,-1.0687448E-1,2.5409898E-1],"split_indices":[1,1,3,1,1,3,1,0,3,3,3,0,1,0,4,0,0,3,0,2,3,0,0,0,0,0,0,0,1,0,0,0,2,0,0,0,0],"split_type":[0,0,0,0,0,0,0,0,0,0,0,0,0,0,0,0,0,0,0,0,0,0,0,0,0,0,0,0,0,0,0,0,0,0,0,0,0],"sum_hessian":[7.2116766E2,5.119379E2,2.0922974E2,1.2716924E2,3.8476865E2,2.0017337E2,9.056372E0,1.2172829E2,5.440957E0,3.467506E2,3.801804E1,1.7147276E2,2.8700602E1,4.329445E0,4.726927E0,1.1907028E0,4.250254E0,3.4082663E2,5.924003E0,1.7083256E1,2.0934784E1,3.3764873E0,2.5324116E1,3.1735196E0,1.1559254E0,3.713834E0,1.0130925E0,3.086349E2,3.2191734E1,1.5991429E1,1.0918262E0,1.8289536E1,2.6452498E0,4.0499697E0,2.8141764E1,1.3019279E0,1.3433219E0],"tree_param":{"num_deleted":"0","num_feature":"6","num_nodes":"37","size_leaf_vector":"1"}},{"base_weights":[-5.044013E-1,9.773747E-1,-5.521879E-1,-1.0930172E-1,1.1869605E0,-5.632097E-1,5.003754E-1,3.8529205E-1,4.0411082E-1,-5.6984293E-1,3.1535797E-2,7.778384E-1,-8.865683E-2,2.5682497E-1,-9.216268E-2,-1.7164174E-1,4.3860942E-2,2.3963724E-1,-1.3219793E-1,8.88061E-2,3.1716672E-1],"categories":[],"categories_nodes":[],"categories_segments":[],"categories_sizes":[],"default_left":[0,1,1,0,0,1,0,0,0,0,0,1,0,0,0,0,0,0,0,0,0],"id":8,"left_children":[1,3,5,-1,7,9,11,13,-1,15,17,19,-1,-1,-1,-1,-1,-1,-1,-1,-1],"loss_changes":[3.1809074E1,4.4136124E0,5.2522583E0,0E0,1.0824833E0,1.6925812E0,1.3272847E0,1.3968303E0,0E0,7.739258E-1,2.391546E0,2.2012925E-1,0E0,0E0,0E0,0E0,0E0,0E0,0E0,0E0,0E0],"parents":[2147483647,0,0,1,1,2,2,4,4,5,5,6,6,7,7,9,9,10,10,11,11],"right_children":[2,4,6,-1,8,10,12,14,-1,16,18,20,-1,-1,-1,-1,-1,-1,-1,-1,-1],"split_conditions":[-3.1462138E0,-2.4700695E-1,4.1427026E0,-1.0930172E-1,-5.6364745E-2,-3.6984116E-2,-2.9464012E-1,-4.121752E0,4.0411082E-1,1.1229779E1,-2.1804307E0,-4.138951E-2,-8.865683E-2,2.5682497E-1,-9.216268E-2,-1.7164174E-1,4.3860942E-2,2.3963724E-1,-1.3219793E-1,8.88061E-2,3.1716672E-1],"split_indices":[1,3,3,0,2,4,1,1,0,2,1,4,0,0,0,0,0,0,0,0,0],"split_type":[0,0,0,0,0,0,0,0,0,0,0,0,0,0,0,0,0,0,0,0,0],"sum_hessian":[4.4060184E2,1.3157531E1,4.274443E2,1.6778696E0,1.1479661E1,4.2347485E2,3.9694526E0,2.4777696E0,9.001891E0,4.188453E2,4.629541E0,2.9601774E0,1.0092752E0,1.3343816E0,1.143388E0,4.1770685E2,1.138473E0,1.500224E0,3.1293168E0,1.8423889E0,1.1177886E0],"tree_param":{"num_deleted":"0","num_feature":"6","num_nodes":"21","size_leaf_vector":"1"}},{"base_weights":[4.8880663E-2,1.1916018E0,-5.0019747E-1,-1.4806494E-1,1.2353884E0,-5.4389197E-1,1.1114311E0,1.2524406E0,3.9896497E-1,-5.554365E-1,2.7312252E-1,1.19727E0,4.562644E-2,1.260304E0,5.371452E-1,-1.16911255E-1,2.7172744E-1,-1.655044E-2,-5.8334565E-1,1.2077619E-1,3.826841E-1,3.823214E-1,8.4296495E-1,-8.7432255E-4,2.6509202E-1,-4.9346647E-1,3.8297936E-1,-5.858669E-1,-1.2032694E-2,-1.3160647E-1,3.383874E-1,-1.6618179E-1,4.903539E-2,-1.1900551E-1,-1.772836E-1],"categories":[],"categories_nodes":[],"categories_segments":[],"categories_sizes":[],"default_left":[0,0,1,0,1,0,0,1,0,0,0,0,0,0,0,0,0,1,1,0,0,0,0,0,0,1,0,0,0,0,0,0,0,0,0],"id":9,"left_children":[1,3,5,-1,7,9,11,13,15,17,-1,19,-1,21,23,-1,-1,25,27,-1,-1,-1,29,-1,-1,31,-1,33,-1,-1,-1,-1,-1,-1,-1],"loss_changes":[3.7955197E2,1.5095276E1,2.93816E1,0E0,2.2335205E0,7.196808E0,7.332611E-1,3.7670898E-1,2.4698095E0,5.946434E0,0E0,1.12594604E-1,0E0,1.1749268E-2,7.098756E-1,0E0,0E0,1.3290863E1,4.9217224E-1,0E0,0E0,0E0,3.7768745E0,0E0,0E0,7.1499825E-1,0E0,1.2554932E-1,0E0,0E0,0E0,0E0,0E0,0E0,0E0],"parents":[2147483647,0,0,1,1,2,2,4,4,5,5,6,6,7,7,8,8,9,9,11,11,13,13,14,14,17,17,18,18,22,22,25,25,27,27],"right_children":[2,4,6,-1,8,10,12,14,16,18,-1,20,-1,22,24,-1,-1,26,28,-1,-1,-1,30,-1,-1,32,-1,34,-1,-1,-1,-1,-1,-1,-1],"split_conditions":[-4.4472295E-1,-3.7465448E0,1.0699059E0,-1.4806494E-1,3.7281187E0,4.923583E0,3.9348957E-1,-3.5346538E-2,-1.9455512E0,-2.9464012E-1,2.7312252E-1,-2.9464012E-1,4.562644E-2,-5.1976436E-1,2.077102E-1,-1.16911255E-1,2.7172744E-1,1.4318945E-1,8.333493E-1,1.2077619E-1,3.826841E-1,3.823214E-1,-3.421173E-1,-8.7432255E-4,2.6509202E-1,-5.1908754E-2,3.8297936E-1,-2.6987648E-1,-1.2032694E-2,-1.3160647E-1,3.383874E-1,-1.6618179E-1,4.903539E-2,-1.1900551E-1,-1.772836E-1],"split_indices":[1,1,3,0,3,2,1,4,1,1,0,1,0,1,0,0,0,3,3,0,0,0,3,0,0,3,0,1,0,0,0,0,0,0,0],"split_type":[0,0,0,0,0,0,0,0,0,0,0,0,0,0,0,0,0,0,0,0,0,0,0,0,0,0,0,0,0,0,0,0,0,0,0],"sum_hessian":[6.0296857E2,1.9531532E2,4.0765323E2,4.686366E0,1.9062895E2,3.975377E2,1.0115535E1,1.863328E2,4.2961564E0,3.9502002E2,2.517674E0,9.057123E0,1.0584114E0,1.8355302E2,2.77977E0,1.7710676E0,2.5250885E0,1.9529316E1,3.754907E2,1.3636469E0,7.693476E0,1.7556755E2,7.9854717E0,1.4739722E0,1.3057978E0,1.471923E1,4.8100863E0,3.736779E2,1.8127923E0,1.3545547E0,6.630917E0,1.3622011E1,1.0972191E0,1.1836886E1,3.61841E2],"tree_param":{"num_deleted":"0","num_feature":"6","num_nodes":"35","size_leaf_vector":"1"}},{"base_weights":[-4.0700534E-1,-1.6659296E-1,8.8775927E-1,9.2225647E-1,4.5051545E-2,2.908752E-1,5.483821E-1,-1.15616806E-1,2.7953142E-1],"categories":[],"categories_nodes":[],"categories_segments":[],"categories_sizes":[],"default_left":[0,0,0,1,0,0,0,0,0],"id":10,"left_children":[1,-1,3,5,-1,-1,7,-1,-1],"loss_changes":[7.3531975E1,0E0,8.6595535E-1,1.3215637E-1,0E0,0E0,2.6923556E0,0E0,0E0],"parents":[2147483647,0,0,2,2,3,3,6,6],"right_children":[2,-1,4,6,-1,-1,8,-1,-1],"split_conditions":[1.2812295E0,-1.6659296E-1,-5.571904E-2,7.002762E-2,4.5051545E-2,2.908752E-1,1.468833E0,-1.15616806E-1,2.7953142E-1],"split_indices":[1,0,2,3,0,0,1,0,0],"split_type":[0,0,0,0,0,0,0,0,0],"sum_hessian":[3.7937292E2,3.408971E2,3.847581E1,3.6517506E1,1.9583061E0,3.0999977E1,5.5175266E0,1.6044818E0,3.9130447E0],"tree_param":{"num_deleted":"0","num_feature":"6","num_nodes":"9","size_leaf_vector":"1"}},{"base_weights":[2.0264268E-1,-1.7267111E-1,7.7876526E-1,8.4284556E-1,-2.1688406E-1,5.188068E-1,8.837026E-1,-3.4515825E-1,2.2512758E-1,8.516E-1,-1.577961E-1,8.923014E-1,-1.1511658E-1,-1.6306244E-1,2.896597E-1,2.7394935E-1,-1.03561625E-1,9.031377E-1,4.315888E-2,2.5325856E-1,-1.2198609E-1,2.7755785E-1,2.3001455E-1,-1.2815228E-1,1.5574144E-1],"categories":[],"categories_nodes":[],"categories_segments":[],"categories_sizes":[],"default_left":[0,0,0,0,0,1,0,1,0,0,0,1,0,0,0,0,0,1,0,0,0,0,0,0,0],"id":11,"left_children":[1,-1,3,5,7,9,11,13,-1,15,-1,17,-1,-1,19,-1,-1,21,23,-1,-1,-1,-1,-1,-1],"loss_changes":[2.8281458E2,0E0,2.3298813E1,4.050873E0,3.0761166E0,1.4550391E1,3.6233215E0,2.7681825E0,0E0,2.6098614E0,0E0,2.7152405E0,0E0,0E0,2.5009503E0,0E0,0E0,1.7973328E-1,1.3012165E0,0E0,0E0,0E0,0E0,0E0,0E0],"parents":[2147483647,0,0,2,2,3,3,4,4,5,5,6,6,7,7,9,9,11,11,14,14,17,17,18,18],"right_children":[2,-1,4,6,8,10,12,14,-1,16,-1,18,-1,-1,20,-1,-1,22,24,-1,-1,-1,-1,-1,-1],"split_conditions":[3.8073254E-1,-1.7267111E-1,1.2812295E0,3.9348957E-1,-5.548087E-2,-2.5920057E-1,9.112223E-1,7.002762E-2,2.2512758E-1,-3.3482343E-3,-1.577961E-1,6.431286E-1,-1.1511658E-1,-1.6306244E-1,1.468833E0,2.7394935E-1,-1.03561625E-1,7.002762E-2,7.184189E-1,2.5325856E-1,-1.2198609E-1,2.7755785E-1,2.3001455E-1,-1.2815228E-1,1.5574144E-1],"split_indices":[1,0,1,1,2,3,2,3,0,2,0,3,0,0,1,0,0,3,1,0,0,0,0,0,0],"split_type":[0,0,0,0,0,0,0,0,0,0,0,0,0,0,0,0,0,0,0,0,0,0,0,0,0],"sum_hessian":[6.287954E2,2.6748453E2,3.613109E2,3.3960715E2,2.1703762E1,3.9559254E1,3.000479E2,1.9730494E1,1.9732695E0,3.0142895E1,9.416361E0,2.9831995E2,1.7279572E0,1.514226E1,4.5882335E0,2.8893587E1,1.2493072E0,2.9449814E2,3.821816E0,2.435835E0,2.1523983E0,2.4853596E2,4.5962173E1,1.9738832E0,1.8479328E0],"tree_param":{"num_deleted":"0","num_feature":"6","num_nodes":"25","size_leaf_vector":"1"}},{"base_weights":[2.6453483E-1,5.301581E-1,-4.9328792E-1,-5.517729E-1,8.199116E-1,-5.3525454E-1,2.553826E-1,-1.730981E-1,-3.9394874E-2,8.395861E-1,-1.5052474E-1,-1.733605E-1,-2.839521E-1,7.5099534E-1,-3.1503192E-1,2.3568246E-1,-1.3837953E-1,8.9145344E-1,3.179508E-1,3.213633E-1,-1.6803423E-1,2.722241E-1,2.6674887E-2,-1.4079593E-1,4.946099E-2,2.7340224E-1,6.787251E-1,-1.6343167E-1,8.2111514E-1,-1.5090725E-1,2.4976681E-1,9.81162E-2,2.671817E-1],"categories":[],"categories_nodes":[],"categories_segments":[],"categories_sizes":[],"default_left":[0,0,1,0,1,1,0,0,0,0,0,0,0,0,0,0,0,1,0,0,0,0,0,0,0,0,0,0,1,0,0,0,0],"id":12,"left_children":[1,3,5,7,9,11,13,-1,15,17,-1,-1,19,21,23,-1,-1,25,27,-1,-1,-1,-1,-1,-1,-1,29,-1,31,-1,-1,-1,-1],"loss_changes":[1.3456613E2,1.5548093E2,5.593647E0,1.3349094E0,1.0574371E1,1.6005974E0,3.0342214E0,0E0,2.4513407E0,1.0135956E1,0E0,0E0,1.0277143E1,4.982953E-1,4.7019458E-1,0E0,0E0,8.6099243E-1,1.6241001E1,0E0,0E0,0E0,0E0,0E0,0E0,0E0,6.566395E0,0E0,5.1139355E-1,0E0,0E0,0E0,0E0],"parents":[2147483647,0,0,1,1,2,2,3,3,4,4,5,5,6,6,8,8,9,9,12,12,13,13,14,14,17,17,18,18,26,26,28,28],"right_children":[2,4,6,8,10,12,14,-1,16,18,-1,-1,20,22,24,-1,-1,26,28,-1,-1,-1,-1,-1,-1,-1,30,-1,32,-1,-1,-1,-1],"split_conditions":[3.9348957E-1,-4.4472295E-1,5.089986E-1,-5.1976436E-1,1.0699059E0,7.002762E-2,7.184189E-1,-1.730981E-1,-3.421173E-1,3.8073254E-1,-1.5052474E-1,-1.733605E-1,5.323162E-1,6.8259746E-1,-3.731466E-2,2.3568246E-1,-1.3837953E-1,1.4318945E-1,-2.7139422E-1,3.213633E-1,-1.6803423E-1,2.722241E-1,2.6674887E-2,-1.4079593E-1,4.946099E-2,2.7340224E-1,-2.9464012E-1,-1.6343167E-1,-2.5920057E-1,-1.5090725E-1,2.4976681E-1,9.81162E-2,2.671817E-1],"split_indices":[1,1,3,1,3,3,1,0,3,1,0,0,1,0,5,0,0,3,3,0,0,0,0,0,0,0,1,0,3,0,0,0,0],"split_type":[0,0,0,0,0,0,0,0,0,0,0,0,0,0,0,0,0,0,0,0,0,0,0,0,0,0,0,0,0,0,0,0,0],"sum_hessian":[6.6620166E2,4.9351935E2,1.726823E2,1.0405959E2,3.8945975E2,1.6378633E2,8.895958E0,9.905758E1,5.002016E0,3.8410663E2,5.3531246E0,1.3892853E2,2.4857807E1,4.590692E0,4.305266E0,1.4006746E0,3.6013417E0,3.4872333E2,3.5383305E1,3.7207375E0,2.113707E1,3.413654E0,1.1770382E0,3.2745523E0,1.0307136E0,3.159062E2,3.2817127E1,1.3004007E1,2.2379297E1,3.5183918E0,2.9298737E1,3.4632018E0,1.8916096E1],"tree_param":{"num_deleted":"0","num_feature":"6","num_nodes":"33","size_leaf_vector":"1"}},{"base_weights":[-4.789342E-1,6.3360023E-1,-5.3575706E-1,-6.808712E-2,9.179513E-1,-5.4873264E-1,4.2357224E-1,1.9567771E-1,-1.3193019E-1,4.5873103E-1,3.2857925E-1,-5.514852E-1,4.144772E-2,2.063999E-1,-1.0892169E-2,2.4171908E-1,-9.954446E-2,-1.6621202E-1,5.525317E-3],"categories":[],"categories_nodes":[],"categories_segments":[],"categories_sizes":[],"default_left":[0,0,1,0,0,0,0,0,0,0,0,1,0,0,0,0,0,0,0],"id":13,"left_children":[1,3,5,7,9,11,13,-1,-1,15,-1,17,-1,-1,-1,-1,-1,-1,-1],"loss_changes":[2.318518E1,3.6577425E0,4.51902E0,1.9273301E0,5.472889E-1,7.1941376E-1,6.524555E-1,0E0,0E0,1.7244798E0,0E0,5.0387573E-1,0E0,0E0,0E0,0E0,0E0,0E0,0E0],"parents":[2147483647,0,0,1,1,2,2,3,3,4,4,5,5,6,6,9,9,11,11],"right_children":[2,4,6,8,10,12,14,-1,-1,16,-1,18,-1,-1,-1,-1,-1,-1,-1],"split_conditions":[-2.6959653E0,-3.6883023E-2,4.1427026E0,-3.8966277E0,-3.9013013E-2,1.1229779E1,-9.475004E-1,1.9567771E-1,-1.3193019E-1,-4.121752E0,3.2857925E-1,-3.407512E-2,4.144772E-2,2.063999E-1,-1.0892169E-2,2.4171908E-1,-9.954446E-2,-1.6621202E-1,5.525317E-3],"split_indices":[1,5,3,1,4,2,1,0,0,1,0,4,0,0,0,0,0,0,0],"split_type":[0,0,0,0,0,0,0,0,0,0,0,0,0,0,0,0,0,0,0],"sum_hessian":[3.6038354E2,1.7018959E1,3.433646E2,5.1272063E0,1.1891752E1,3.3920462E2,4.1599655E0,1.4881529E0,3.6390536E0,4.311801E0,7.579952E0,3.3804712E2,1.157497E0,2.3263106E0,1.8336552E0,2.9831715E0,1.3286294E0,3.365661E2,1.481028E0],"tree_param":{"num_deleted":"0","num_feature":"6","num_nodes":"19","size_leaf_vector":"1"}},{"base_weights":[4.3954216E-2,8.824318E-1,-4.6821728E-1,-1.3878933E-1,9.113639E-1,-5.1449656E-1,8.2560176E-1,9.232916E-1,3.1365845E-1,-5.273139E-1,2.0792525E-1,8.837554E-1,3.9001208E-2,2.7980965E-1,5.444676E-1,-1.099871E-1,2.0780171E-1,2.6083994E-3,-5.5780107E-1,8.766493E-2,2.8315884E-1,-1.1120606E-1,2.4647869E-1,-1.5707342E-1,8.521469E-1,-5.608497E-1,-2.1182913E-3,5.61165E-2,2.79303E-1,-1.03591144E-1,-1.7011607E-1],"categories":[],"categories_nodes":[],"categories_segments":[],"categories_sizes":[],"default_left":[0,0,1,0,1,0,0,1,0,0,0,0,0,0,0,0,0,1,1,0,0,0,0,0,0,0,0,0,0,0,0],"id":14,"left_children":[1,3,5,-1,7,9,11,13,15,17,-1,19,-1,-1,21,-1,-1,23,25,-1,-1,-1,-1,-1,27,29,-1,-1,-1,-1,-1],"loss_changes":[2.326646E2,8.415939E0,2.056688E1,0E0,1.1464996E0,5.40184E0,3.705654E-1,1.9415283E-1,1.6606375E0,5.2123795E0,0E0,1.1183739E-1,0E0,0E0,2.124373E0,0E0,0E0,8.73477E0,5.0814056E-1,0E0,0E0,0E0,0E0,0E0,2.1779394E-1,2.0977783E-1,0E0,0E0,0E0,0E0,0E0],"parents":[2147483647,0,0,1,1,2,2,4,4,5,5,6,6,7,7,8,8,9,9,11,11,14,14,17,17,18,18,24,24,25,25],"right_children":[2,4,6,-1,8,10,12,14,16,18,-1,20,-1,-1,22,-1,-1,24,26,-1,-1,-1,-1,-1,28,30,-1,-1,-1,-1,-1],"split_conditions":[-4.4472295E-1,-3.7465448E0,1.0699059E0,-1.3878933E-1,3.7281187E0,4.923583E0,3.9348957E-1,-3.6984116E-2,-1.9455512E0,-2.9464012E-1,2.0792525E-1,-4.13894E-2,3.9001208E-2,2.7980965E-1,-2.6959653E0,-1.099871E-1,2.0780171E-1,-5.1908754E-2,8.333493E-1,8.766493E-2,2.8315884E-1,-1.1120606E-1,2.4647869E-1,-1.5707342E-1,1.1880217E-1,-2.6987648E-1,-2.1182913E-3,5.61165E-2,2.79303E-1,-1.03591144E-1,-1.7011607E-1],"split_indices":[1,1,3,0,3,2,1,4,1,1,0,4,0,0,1,0,0,3,3,0,0,0,0,0,3,1,0,0,0,0,0],"split_type":[0,0,0,0,0,0,0,0,0,0,0,0,0,0,0,0,0,0,0,0,0,0,0,0,0,0,0,0,0,0,0],"sum_hessian":[5.398185E2,2.0442717E2,3.353913E2,3.9889507E0,2.0043822E2,3.2439035E2,1.1000947E1,1.9598248E2,4.4557366E0,3.2154083E2,2.8495095E0,9.902571E0,1.098377E0,1.8980698E2,6.1755166E0,1.6059501E0,2.8497868E0,1.754209E1,3.0399875E2,1.4540726E0,8.448498E0,1.356935E0,4.8185816E0,1.1069539E1,6.4725504E0,3.0230695E2,1.691816E0,1.0435622E0,5.4289885E0,1.0042692E1,2.9226425E2],"tree_param":{"num_deleted":"0","num_feature":"6","num_nodes":"31","size_leaf_vector":"1"}},{"base_weights":[-3.8811442E-1,-1.6231638E-1,7.218537E-1,7.5145435E-1,3.480588E-2,2.3688464E-1,4.5257798E-1,-1.0639263E-1,2.264188E-1],"categories":[],"categories_nodes":[],"categories_segments":[],"categories_sizes":[],"default_left":[0,0,0,1,0,0,0,0,0],"id":15,"left_children":[1,-1,3,5,-1,-1,7,-1,-1],"loss_changes":[5.274304E1,0E0,5.902424E-1,5.1330566E-2,0E0,0E0,1.8286384E0,0E0,0E0],"parents":[2147483647,0,0,2,2,3,3,6,6],"right_children":[2,-1,4,6,-1,-1,8,-1,-1],"split_conditions":[1.2812295E0,-1.6231638E-1,-5.571904E-2,7.002762E-2,3.480588E-2,2.3688464E-1,1.468833E0,-1.0639263E-1,2.264188E-1],"split_indices":[1,0,2,3,0,0,1,0,0],"split_type":[0,0,0,0,0,0,0,0,0],"sum_hessian":[3.0739346E2,2.7061813E2,3.6775356E1,3.4833073E1,1.9422841E0,2.943306E1,5.400013E0,1.4234459E0,3.976567E0],"tree_param":{"num_deleted":"0","num_feature":"6","num_nodes":"9","size_leaf_vector":"1"}},{"base_weights":[1.793457E-1,-1.6653723E-1,6.500019E-1,6.999118E-1,-1.8543582E-1,7.070504E-1,-1.11666456E-1,-3.1416297E-1,1.8986219E-1,7.130168E-1,-1.0900977E-1,-1.5535781E-1,2.502361E-1,4.5386302E-1,7.44468E-1,2.0597757E-1,-1.1221781E-1,2.1147503E-1,-1.4784487E-1,2.3127872E-1,1.8041483E-1],"categories":[],"categories_nodes":[],"categories_segments":[],"categories_sizes":[],"default_left":[0,0,0,0,0,1,0,1,0,0,0,0,0,1,1,0,0,0,0,0,0],"id":16,"left_children":[1,-1,3,5,7,9,-1,11,-1,13,-1,-1,15,17,19,-1,-1,-1,-1,-1,-1],"loss_changes":[1.8924858E2,0E0,1.4034729E1,2.6731873E0,2.262391E0,2.2590485E0,0E0,2.15245E0,0E0,2.2031097E0,0E0,0E0,1.7116392E0,8.975121E0,5.8306885E-1,0E0,0E0,0E0,0E0,0E0,0E0],"parents":[2147483647,0,0,2,2,3,3,4,4,5,5,7,7,9,9,12,12,13,13,14,14],"right_children":[2,-1,4,6,8,10,-1,12,-1,14,-1,-1,16,18,20,-1,-1,-1,-1,-1,-1],"split_conditions":[3.8073254E-1,-1.6653723E-1,1.2812295E0,9.112223E-1,-5.548087E-2,9.6260184E-1,-1.11666456E-1,7.002762E-2,1.8986219E-1,3.9348957E-1,-1.0900977E-1,-1.5535781E-1,1.468833E0,-2.5920057E-1,7.002762E-2,2.0597757E-1,-1.1221781E-1,2.1147503E-1,-1.4784487E-1,2.3127872E-1,1.8041483E-1],"split_indices":[1,0,1,2,2,3,0,3,0,1,0,0,1,3,3,0,0,0,0,0,0],"split_type":[0,0,0,0,0,0,0,0,0,0,0,0,0,0,0,0,0,0,0,0,0],"sum_hessian":[5.4541943E2,2.1294086E2,3.3247858E2,3.1388876E2,1.8589815E1,3.1215088E2,1.7378781E0,1.6595314E1,1.9945024E0,3.1075266E2,1.3982265E0,1.2254883E1,4.3404307E0,3.53017E1,2.7545096E2,2.4960275E0,1.844403E0,2.8104053E1,7.197648E0,2.2875826E2,4.669269E1],"tree_param":{"num_deleted":"0","num_feature":"6","num_nodes":"21","size_leaf_vector":"1"}},{"base_weights":[2.3412491E-1,4.5612445E-1,-4.5949024E-1,-5.2479255E-1,6.8751156E-1,-1.6666625E-1,-9.827206E-2,-1.6640794E-1,1.442725E-2,7.0361096E-1,-1.4117637E-1,6.554458E-1,-4.5958152E-1,2.1665607E-1,-1.2769765E-1,7.4436027E-1,2.796329E-1,5.4986365E-3,7.458612E-1,-1.6382325E-1,1.9107679E-1,2.2877958E-1,5.5300117E-1,-1.5467587E-1,6.809654E-1,2.7381077E-1,3.3545333E-1,-7.539694E-2,2.1839443E-1,8.3222166E-2,2.2257286E-1,-9.4071314E-2,2.1346681E-1],"categories":[],"categories_nodes":[],"categories_segments":[],"categories_sizes":[],"default_left":[0,0,1,0,1,0,0,0,0,0,0,1,0,0,0,1,0,0,0,0,0,0,0,0,1,0,0,0,0,0,0,0,0],"id":17,"left_children":[1,3,5,7,9,-1,11,-1,13,15,-1,17,19,-1,-1,21,23,-1,25,-1,-1,-1,27,-1,29,-1,31,-1,-1,-1,-1,-1,-1],"loss_changes":[8.97409E1,1.0044744E2,4.8545456E0,1.3741341E0,6.991623E0,0E0,8.725644E0,0E0,1.9975697E0,5.886017E0,0E0,5.87512E-1,2.3868265E0,0E0,0E0,6.993103E-1,1.0733316E1,0E0,3.178997E-1,0E0,0E0,0E0,4.628731E0,0E0,3.365183E-1,0E0,1.2520905E0,0E0,0E0,0E0,0E0,0E0,0E0],"parents":[2147483647,0,0,1,1,2,2,3,3,4,4,6,6,8,8,9,9,11,11,12,12,15,15,16,16,18,18,22,22,24,24,26,26],"right_children":[2,4,6,8,10,-1,12,-1,14,16,-1,18,20,-1,-1,22,24,-1,26,-1,-1,-1,28,-1,30,-1,32,-1,-1,-1,-1,-1,-1],"split_conditions":[3.9348957E-1,-4.4472295E-1,7.002762E-2,-5.1976436E-1,1.0699059E0,-1.6666625E-1,6.306204E-1,-1.6640794E-1,-3.421173E-1,3.8073254E-1,-1.4117637E-1,-3.734922E-2,8.556345E-1,2.1665607E-1,-1.2769765E-1,1.4318945E-1,-2.7139422E-1,5.4986365E-3,5.323162E-1,-1.6382325E-1,1.9107679E-1,2.2877958E-1,-2.6987648E-1,-1.5467587E-1,-2.5920057E-1,2.7381077E-1,4.60224E-1,-7.539694E-2,2.1839443E-1,8.3222166E-2,2.2257286E-1,-9.4071314E-2,2.1346681E-1],"split_indices":[1,1,3,1,3,0,1,0,3,1,0,5,0,0,0,3,3,0,1,0,0,0,1,0,3,0,3,0,0,0,0,0,0],"split_type":[0,0,0,0,0,0,0,0,0,0,0,0,0,0,0,0,0,0,0,0,0,0,0,0,0,0,0,0,0,0,0,0,0],"sum_hessian":[5.804393E2,4.3996558E2,1.4047366E2,8.3732254E1,3.5623334E2,1.1053856E2,2.9935099E1,7.930593E1,4.426323E0,3.5173608E2,4.4972425E0,9.43627E0,2.049883E1,1.4512944E0,2.9750283E0,3.2020496E2,3.1531124E1,1.3221787E0,8.114091E0,1.9465322E1,1.0335073E0,2.896166E2,3.058835E1,1.0480293E1,2.105083E1,4.898737E0,3.2153537E0,5.3875113E0,2.5200838E1,3.490348E0,1.7560482E1,1.2406608E0,1.9746931E0],"tree_param":{"num_deleted":"0","num_feature":"6","num_nodes":"33","size_leaf_vector":"1"}},{"base_weights":[-4.576708E-1,5.3667223E-1,-5.1839054E-1,-5.051917E-2,7.4569404E-1,-5.3352886E-1,3.5969487E-1,1.6364081E-1,-1.2294465E-1,3.8706142E-1,2.607565E-1,-5.3692E-1,4.050547E-2,5.803988E-2,1.9687016E-1,1.9809543E-1,-9.014752E-2,-1.620299E-1,9.730207E-3,1.09735645E-1,-9.590926E-2],"categories":[],"categories_nodes":[],"categories_segments":[],"categories_sizes":[],"default_left":[0,0,1,0,0,0,1,0,0,0,0,1,0,0,0,0,0,0,0,0,0],"id":18,"left_children":[1,3,5,7,9,11,13,-1,-1,15,-1,17,-1,19,-1,-1,-1,-1,-1,-1,-1],"loss_changes":[1.7856926E1,2.1545482E0,3.8461533E0,1.3936565E0,2.2972107E-1,6.8608856E-1,4.3210924E-1,0E0,0E0,1.1523054E0,0E0,5.053711E-1,0E0,5.4737353E-1,0E0,0E0,0E0,0E0,0E0,0E0,0E0],"parents":[2147483647,0,0,1,1,2,2,3,3,4,4,5,5,6,6,9,9,11,11,13,13],"right_children":[2,4,6,8,10,12,14,-1,-1,16,-1,18,-1,20,-1,-1,-1,-1,-1,-1,-1],"split_conditions":[-2.6959653E0,-3.6883023E-2,4.1427026E0,-3.8966277E0,-3.9013013E-2,1.1229779E1,-4.138951E-2,1.6364081E-1,-1.2294465E-1,-4.121752E0,2.607565E-1,-3.407512E-2,4.050547E-2,-9.475004E-1,1.9687016E-1,1.9809543E-1,-9.014752E-2,-1.620299E-1,9.730207E-3,1.09735645E-1,-9.590926E-2],"split_indices":[1,5,3,1,4,2,4,0,0,1,0,4,0,1,0,0,0,0,0,0,0],"split_type":[0,0,0,0,0,0,0,0,0,0,0,0,0,0,0,0,0,0,0,0,0],"sum_hessian":[2.9015265E2,1.6247417E1,2.739052E2,4.464341E0,1.1783076E1,2.6964883E2,4.256389E0,1.4842151E0,2.980126E0,4.077139E0,7.7059374E0,2.6848386E2,1.1649673E0,2.7027423E0,1.5536469E0,2.9459364E0,1.1312023E0,2.6704388E2,1.439971E0,1.5067898E0,1.1959525E0],"tree_param":{"num_deleted":"0","num_feature":"6","num_nodes":"21","size_leaf_vector":"1"}},{"base_weights":[4.0618185E-2,7.066829E-1,-4.5928156E-1,-1.2996165E-1,7.28416E-1,-5.0679636E-1,6.5104777E-1,7.4901295E-1,1.6465698E-1,-5.2152705E-1,1.6574441E-1,6.968649E-1,3.6314804E-2,7.577208E-1,2.0099829E-1,-1.3231857E-1,2.510898E-1,-1.8320228E-1,-5.452912E-1,5.2910183E-2,2.2906764E-1,7.6981735E-1,3.719779E-1,1.5361337E-1,-7.285224E-2,-1.5573302E-1,7.734381E-1,-1.6477837E-1,7.823409E-3,2.341805E-1,1.437863E-1,-6.8188235E-2,2.2050296E-1,7.2931774E-2,2.836858E-1],"categories":[],"categories_nodes":[],"categories_segments":[],"categories_sizes":[],"default_left":[0,0,1,0,0,0,0,0,1,0,0,0,0,1,1,0,0,1,1,0,0,0,0,0,0,0,0,0,0,0,0,0,0,0,0],"id":19,"left_children":[1,3,5,-1,7,9,11,13,15,17,-1,19,-1,21,23,-1,-1,25,27,-1,-1,29,31,-1,-1,-1,33,-1,-1,-1,-1,-1,-1,-1,-1],"loss_changes":[1.5457272E2,5.245735E0,1.4323429E1,0E0,2.1486206E0,4.2659073E0,1.9059229E-1,7.471466E-1,3.6996005E0,1.9256821E0,0E0,2.1981382E-1,0E0,5.776901E-1,7.192471E-1,0E0,0E0,6.198806E0,5.4717255E-1,0E0,0E0,1.8547821E-1,1.8129293E0,0E0,0E0,0E0,2.3490572E-1,0E0,0E0,0E0,0E0,0E0,0E0,0E0,0E0],"parents":[2147483647,0,0,1,1,2,2,4,4,5,5,6,6,7,7,8,8,9,9,11,11,13,13,14,14,17,17,18,18,21,21,22,22,26,26],"right_children":[2,4,6,-1,8,10,12,14,16,18,-1,20,-1,22,24,-1,-1,26,28,-1,-1,30,32,-1,-1,-1,34,-1,-1,-1,-1,-1,-1,-1,-1],"split_conditions":[-3.9219397E-1,-3.7465448E0,1.0699059E0,-1.2996165E-1,-4.4472295E-1,4.923583E0,3.9348957E-1,-5.558143E-2,-5.1908754E-2,-2.6987648E-1,1.6574441E-1,-4.1388486E-2,3.6314804E-2,-3.6984116E-2,2.3739065E-1,-1.3231857E-1,2.510898E-1,1.4318945E-1,8.333493E-1,5.2910183E-2,2.2906764E-1,-5.1976436E-1,-2.1804307E0,1.5361337E-1,-7.285224E-2,-1.5573302E-1,3.6267492E-1,-1.6477837E-1,7.823409E-3,2.341805E-1,1.437863E-1,-6.8188235E-2,2.2050296E-1,7.2931774E-2,2.836858E-1],"split_indices":[1,1,3,0,1,2,1,2,3,1,0,4,0,4,0,0,0,3,3,0,0,1,1,0,0,0,3,0,0,0,0,0,0,0,0],"split_type":[0,0,0,0,0,0,0,0,0,0,0,0,0,0,0,0,0,0,0,0,0,0,0,0,0,0,0,0,0,0,0,0,0,0,0],"sum_hessian":[4.6225552E2,1.9801172E2,2.642438E2,3.3504286E0,1.9466129E2,2.539212E2,1.03226E1,1.87483E2,7.1782894E0,2.5093921E2,2.9819932E0,9.211448E0,1.1111522E0,1.8417383E2,3.3091815E0,3.9570935E0,3.2211962E0,1.7040869E1,2.3389835E2,1.4601847E0,7.751263E0,1.7760854E2,6.5652885E0,1.8552998E0,1.4538816E0,1.2950786E1,4.0900836E0,2.3232277E2,1.575564E0,1.6962532E2,7.983212E0,2.617829E0,3.9474595E0,1.5935957E0,2.496488E0],"tree_param":{"num_deleted":"0","num_feature":"6","num_nodes":"35","size_leaf_vector":"1"}},{"base_weights":[-3.736748E-1,-1.5901224E-1,6.2208396E-1,6.507608E-1,2.6991552E-2,2.057655E-1,3.8505584E-1,-9.7642615E-2,1.9200526E-1],"categories":[],"categories_nodes":[],"categories_segments":[],"categories_sizes":[],"default_left":[0,0,0,1,0,0,0,0,0],"id":20,"left_children":[1,-1,3,5,-1,-1,7,-1,-1],"loss_changes":[3.863136E1,0E0,4.579172E-1,3.41177E-2,0E0,0E0,1.2972419E0,0E0,0E0],"parents":[2147483647,0,0,2,2,3,3,6,6],"right_children":[2,-1,4,6,-1,-1,8,-1,-1],"split_conditions":[1.2812295E0,-1.5901224E-1,-5.571904E-2,7.002762E-2,2.6991552E-2,2.057655E-1,1.468833E0,-9.7642615E-2,1.9200526E-1],"split_indices":[1,0,2,3,0,0,1,0,0],"split_type":[0,0,0,0,0,0,0,0,0],"sum_hessian":[2.4499184E2,2.1214586E2,3.284599E1,3.0954779E1,1.8912115E0,2.5943834E1,5.010944E0,1.2502266E0,3.7607172E0],"tree_param":{"num_deleted":"0","num_feature":"6","num_nodes":"9","size_leaf_vector":"1"}},{"base_weights":[1.6252843E-1,-1.6194782E-1,5.688367E-1,6.0069E-1,-4.234572E-1,6.070953E-1,-1.0392535E-1,9.197062E-3,-1.4542635E-1,6.2178725E-1,1.6162053E-1,6.3304305E-1,1.7639098E-1,-1.5433042E-1,5.378312E-1,1.2176222E-1,1.9831175E-1,-1.06792204E-1,1.18191965E-1,-2.730591E-2,2.082639E-1],"categories":[],"categories_nodes":[],"categories_segments":[],"categories_sizes":[],"default_left":[0,0,0,0,0,1,0,0,0,0,0,0,0,0,1,0,0,0,0,0,0],"id":21,"left_children":[1,-1,3,5,7,9,-1,-1,-1,11,13,15,17,-1,19,-1,-1,-1,-1,-1,-1],"loss_changes":[1.3087737E2,0E0,9.431625E0,1.9194489E0,2.8255916E-1,1.7333984E0,0E0,0E0,0E0,1.2464523E0,2.8956938E0,1.4096756E0,1.074281E0,0E0,7.6186633E-1,0E0,0E0,0E0,0E0,0E0,0E0],"parents":[2147483647,0,0,2,2,3,3,4,4,5,5,9,9,10,10,11,11,12,12,14,14],"right_children":[2,-1,4,6,8,10,-1,-1,-1,12,14,16,18,-1,20,-1,-1,-1,-1,-1,-1],"split_conditions":[3.8073254E-1,-1.6194782E-1,1.4313123E0,9.112223E-1,-4.138837E-2,4.8461127E-1,-1.0392535E-1,9.197062E-3,-1.4542635E-1,1.2812295E0,6.306204E-1,3.9348957E-1,-1.5921277E-1,-1.5433042E-1,-4.1389056E-2,1.2176222E-1,1.9831175E-1,-1.06792204E-1,1.18191965E-1,-2.730591E-2,2.082639E-1],"split_indices":[1,0,1,2,4,3,0,0,0,1,1,1,3,0,4,0,0,0,0,0,0],"split_type":[0,0,0,0,0,0,0,0,0,0,0,0,0,0,0,0,0,0,0,0,0],"sum_hessian":[4.5654355E2,1.6719592E2,2.8934763E2,2.8073062E2,8.617001E0,2.7920135E2,1.5292473E0,1.0842583E0,7.532742E0,2.6990402E2,9.297332E0,2.628404E2,7.0636377E0,3.1926637E0,6.104668E0,3.0538536E1,2.3230186E2,1.8648384E0,5.198799E0,1.2990049E0,4.805663E0],"tree_param":{"num_deleted":"0","num_feature":"6","num_nodes":"21","size_leaf_vector":"1"}},{"base_weights":[2.1396501E-1,4.086332E-1,-4.2732704E-1,-1.6124177E-1,5.9990466E-1,-1.6160916E-1,-5.5703077E-2,6.153705E-1,-1.3494252E-1,6.1088216E-1,-4.2768347E-1,6.494335E-1,2.5437662E-1,8.516051E-3,6.9250804E-1,-1.5772246E-1,1.7719294E-1,3.3900958E-1,6.6493905E-1,-1.473045E-1,5.968254E-1,2.4680465E-1,3.3137834E-1,1.5694897E-1,-1.5604314E-1,2.0280598E-1,1.2945399E-1,2.6646357E-2,1.8733008E-1,-8.62871E-2,1.9580878E-1],"categories":[],"categories_nodes":[],"categories_segments":[],"categories_sizes":[],"default_left":[0,0,1,0,1,0,0,0,0,1,0,0,0,0,0,0,0,1,1,0,0,0,0,0,0,0,0,0,0,0,0],"id":22,"left_children":[1,3,5,-1,7,-1,9,11,-1,13,15,17,19,-1,21,-1,-1,23,25,-1,27,-1,29,-1,-1,-1,-1,-1,-1,-1,-1],"loss_changes":[6.1053078E1,6.811247E1,4.6901913E0,0E0,5.3433685E0,0E0,7.05846E0,3.6218033E0,0E0,4.6675348E-1,2.1261551E0,1.1260376E0,7.490896E0,0E0,1.4718103E-1,0E0,0E0,2.7082646E0,3.9728546E-1,0E0,2.2185326E-1,0E0,9.9138445E-1,0E0,0E0,0E0,0E0,0E0,0E0,0E0,0E0],"parents":[2147483647,0,0,1,1,2,2,4,4,6,6,7,7,9,9,10,10,11,11,12,12,14,14,17,17,18,18,20,20,22,22],"right_children":[2,4,6,-1,8,-1,10,12,-1,14,16,18,20,-1,22,-1,-1,24,26,-1,28,-1,30,-1,-1,-1,-1,-1,-1,-1,-1],"split_conditions":[3.9348957E-1,-5.1976436E-1,7.002762E-2,-1.6124177E-1,1.0699059E0,-1.6160916E-1,6.306204E-1,3.8073254E-1,-1.3494252E-1,-3.734922E-2,-3.9405473E-2,-3.9219397E-1,-2.7139422E-1,8.516051E-3,5.323162E-1,-1.5772246E-1,1.7719294E-1,-5.1908754E-2,3.6267492E-1,-1.473045E-1,-2.5920057E-1,2.4680465E-1,4.60224E-1,1.5694897E-1,-1.5604314E-1,2.0280598E-1,1.2945399E-1,2.6646357E-2,1.8733008E-1,-8.62871E-2,1.9580878E-1],"split_indices":[1,1,3,0,3,0,1,1,0,5,4,1,3,0,1,0,0,3,3,0,3,0,3,0,0,0,0,0,0,0,0],"split_type":[0,0,0,0,0,0,0,0,0,0,0,0,0,0,0,0,0,0,0,0,0,0,0,0,0,0,0,0,0,0,0],"sum_hessian":[4.8665518E2,3.7360718E2,1.1304798E2,6.2524715E1,3.1108246E2,8.663515E1,2.641284E1,3.0697348E2,4.1089973E0,9.230188E0,1.718265E1,2.797752E2,2.7198267E1,1.3001165E0,7.9300723E0,1.611464E1,1.0680113E0,1.4397569E1,2.6537762E2,8.425361E0,1.8772905E1,4.8895044E0,3.0405676E0,1.2178305E1,2.2192643E0,2.5154079E2,1.3836845E1,1.1850252E0,1.7587881E1,1.0748279E0,1.9657398E0],"tree_param":{"num_deleted":"0","num_feature":"6","num_nodes":"31","size_leaf_vector":"1"}},{"base_weights":[-4.3883458E-1,4.7490656E-1,-5.030755E-1,-9.5009275E-2,5.762145E-1,-5.2119255E-1,3.341697E-1,1.4374653E-1,1.9719963E-1,-5.2544E-1,4.0297057E-2,6.492902E-2,1.7367204E-1,1.3995862E-1,-8.572103E-2,-1.58792E-1,6.939299E-3,9.688472E-2,-8.75168E-2],"categories":[],"categories_nodes":[],"categories_segments":[],"categories_sizes":[],"default_left":[0,1,1,0,0,0,1,0,0,1,0,0,0,0,0,0,0,0,0],"id":23,"left_children":[1,3,5,-1,7,9,11,13,-1,15,-1,17,-1,-1,-1,-1,-1,-1,-1],"loss_changes":[1.384465E1,1.4447491E0,3.466423E0,0E0,4.0746832E-1,6.631775E-1,3.0548465E-1,6.2403196E-1,0E0,4.6123123E-1,0E0,4.2599833E-1,0E0,0E0,0E0,0E0,0E0,0E0,0E0],"parents":[2147483647,0,0,1,1,2,2,4,4,5,5,6,6,7,7,9,9,11,11],"right_children":[2,4,6,-1,8,10,12,14,-1,16,-1,18,-1,-1,-1,-1,-1,-1,-1],"split_conditions":[-2.6959653E0,-2.4700695E-1,4.1427026E0,-9.5009275E-2,-5.6364745E-2,1.1229779E1,-4.138951E-2,-4.121752E0,1.9719963E-1,-3.407512E-2,4.0297057E-2,-9.475004E-1,1.7367204E-1,1.3995862E-1,-8.572103E-2,-1.58792E-1,6.939299E-3,9.688472E-2,-8.75168E-2],"split_indices":[1,3,3,0,2,2,4,1,0,4,0,1,0,0,0,0,0,0,0],"split_type":[0,0,0,0,0,0,0,0,0,0,0,0,0,0,0,0,0,0,0],"sum_hessian":[2.3078593E2,1.4739771E1,2.1604616E2,1.4311223E0,1.3308649E1,2.1183966E2,4.206496E0,2.5398486E0,1.0768801E1,2.1067303E2,1.1666229E0,2.6054661E0,1.6010298E0,1.4008049E0,1.1390437E0,2.0923335E2,1.4396819E0,1.5666031E0,1.0388632E0],"tree_param":{"num_deleted":"0","num_feature":"6","num_nodes":"19","size_leaf_vector":"1"}},{"base_weights":[3.8787894E-2,6.165594E-1,-4.3783298E-1,-1.2142139E-1,6.3550866E-1,-4.9189147E-1,4.9732926E-1,6.614028E-1,3.1280327E-1,-5.08418E-1,4.5235994E-1,6.4487827E-1,1.3710435E-1,6.744868E-1,1.7077982E-1,-1.4611435E-1,5.401846E-1,-1.4938617E-1,-1.6071826E-1,1.6871476E-1,4.8172913E-2,2.0976016E-1,4.1949634E-2,-6.062283E-2,1.19933955E-1,6.8411696E-1,3.6303872E-1,-1.061132E-1,4.58396E-1,2.8006232E-1,2.2007456E-1,-1.4878927E-1,6.4306426E-1,2.0679656E-1,8.5787095E-2,-9.3741395E-2,1.6440377E-1,1.660889E-1,5.2962568E-2,1.7436138E-1,-1.0408676E-1,5.411339E-2,2.4418019E-1],"categories":[],"categories_nodes":[],"categories_segments":[],"categories_sizes":[],"default_left":[0,0,1,0,0,0,1,1,0,0,0,0,0,1,0,0,1,1,0,0,0,0,0,0,0,0,0,0,0,0,0,0,0,0,0,0,0,0,0,0,0,0,0],"id":24,"left_children":[1,3,5,-1,7,9,11,13,15,17,19,21,23,25,27,-1,29,31,-1,-1,-1,-1,-1,-1,-1,33,35,-1,37,39,-1,-1,41,-1,-1,-1,-1,-1,-1,-1,-1,-1,-1],"loss_changes":[1.06278496E2,3.6329193E0,1.0938107E1,0E0,1.2273712E0,3.358387E0,5.524099E-1,8.9901733E-1,2.926934E0,1.8563881E0,3.7384212E-2,1.2948322E-1,5.060743E-1,2.1218109E-1,9.832241E-1,0E0,3.9213967E-1,4.5339212E0,0E0,0E0,0E0,0E0,0E0,0E0,0E0,1.09199524E-1,1.0129309E0,0E0,8.309603E-3,1.463567E0,0E0,0E0,2.567911E-1,0E0,0E0,0E0,0E0,0E0,0E0,0E0,0E0,0E0,0E0],"parents":[2147483647,0,0,1,1,2,2,4,4,5,5,6,6,7,7,8,8,9,9,10,10,11,11,12,12,13,13,14,14,16,16,17,17,25,25,26,26,28,28,29,29,32,32],"right_children":[2,4,6,-1,8,10,12,14,16,18,20,22,24,26,28,-1,30,32,-1,-1,-1,-1,-1,-1,-1,34,36,-1,38,40,-1,-1,42,-1,-1,-1,-1,-1,-1,-1,-1,-1,-1],"split_conditions":[-3.9219397E-1,-3.7465448E0,8.333493E-1,-1.2142139E-1,-5.1976436E-1,4.923583E0,-3.7345015E-2,3.7281187E0,-3.1529132E-1,-2.6987648E-1,2.670711E-1,3.9348957E-1,-3.73094E-2,-3.6984116E-2,-1.9455512E0,-1.4611435E-1,-5.1908754E-2,1.4318945E-1,-1.6071826E-1,1.6871476E-1,4.8172913E-2,2.0976016E-1,4.1949634E-2,-6.062283E-2,1.19933955E-1,-5.558143E-2,-2.6959653E0,-1.061132E-1,-5.5954564E-2,-4.4472295E-1,2.2007456E-1,-1.4878927E-1,3.6267492E-1,2.0679656E-1,8.5787095E-2,-9.3741395E-2,1.6440377E-1,1.660889E-1,5.2962568E-2,1.7436138E-1,-1.0408676E-1,5.411339E-2,2.4418019E-1],"split_indices":[1,1,3,0,1,2,5,3,3,1,0,1,5,4,1,0,3,3,0,0,0,0,0,0,0,2,1,0,2,1,0,0,3,0,0,0,0,0,0,0,0,0,0],"split_type":[0,0,0,0,0,0,0,0,0,0,0,0,0,0,0,0,0,0,0,0,0,0,0,0,0,0,0,0,0,0,0,0,0,0,0,0,0,0,0,0,0,0,0],"sum_hessian":[3.8395657E2,1.7342859E2,2.1052797E2,2.7883415E0,1.7064024E2,1.9947124E2,1.1056738E1,1.5699341E2,1.3646836E1,1.9649371E2,2.9775248E0,7.2832794E0,3.7734587E0,1.5255043E2,4.4429827E0,2.7679904E0,1.0878845E1,1.4346977E1,1.8214673E2,1.4887624E0,1.4887624E0,6.2288785E0,1.0544007E0,1.7475852E0,2.0258737E0,1.4681429E2,5.736144E0,1.492143E0,2.9508398E0,5.6831036E0,5.195742E0,1.0241846E1,4.105131E0,1.4419801E2,2.6162758E0,1.0849001E0,4.6512437E0,1.4848821E0,1.4659576E0,3.888576E0,1.7945274E0,1.661558E0,2.443573E0],"tree_param":{"num_deleted":"0","num_feature":"6","num_nodes":"43","size_leaf_vector":"1"}},{"base_weights":[-3.6132428E-1,-1.5643586E-1,5.543481E-1,5.8477384E-1,1.9277759E-2,1.8666221E-1,3.2249546E-1,-9.205448E-2,1.6702291E-1],"categories":[],"categories_nodes":[],"categories_segments":[],"categories_sizes":[],"default_left":[0,0,0,1,0,0,0,0,0],"id":25,"left_children":[1,-1,3,5,-1,-1,7,-1,-1],"loss_changes":[2.876777E1,0E0,4.007368E-1,6.985664E-2,0E0,0E0,9.8421526E-1,0E0,0E0],"parents":[2147483647,0,0,2,2,3,3,6,6],"right_children":[2,-1,4,6,-1,-1,8,-1,-1],"split_conditions":[1.2812295E0,-1.5643586E-1,-5.571904E-2,7.002762E-2,1.9277759E-2,1.8666221E-1,1.468833E0,-9.205448E-2,1.6702291E-1],"split_indices":[1,0,2,3,0,0,1,0,0],"split_type":[0,0,0,0,0,0,0,0,0],"sum_hessian":[1.932277E2,1.64833E2,2.8394712E1,2.6553045E1,1.8416672E0,2.2035698E1,4.517347E0,1.1412538E0,3.376093E0],"tree_param":{"num_deleted":"0","num_feature":"6","num_nodes":"9","size_leaf_vector":"1"}},{"base_weights":[1.4870441E-1,-1.5844357E-1,5.0861436E-1,5.3689855E-1,-3.95321E-1,5.432169E-1,-9.74752E-2,9.703826E-3,-1.3839953E-1,5.5126524E-1,-1.220469E-1,3.3366317E-1,5.7914764E-1,8.7181844E-2,-1.1787796E-1,1.6454859E-1,-1.3933448E-1,1.7761841E-1,4.7315013E-2],"categories":[],"categories_nodes":[],"categories_segments":[],"categories_sizes":[],"default_left":[0,0,0,0,0,1,0,0,0,0,0,1,0,0,0,0,0,0,0],"id":26,"left_children":[1,-1,3,5,7,9,-1,-1,-1,11,13,15,17,-1,-1,-1,-1,-1,-1],"loss_changes":[9.1764206E1,0E0,6.4944305E0,1.476181E0,2.4164414E-1,1.337944E0,0E0,0E0,0E0,1.2305374E0,5.227956E-1,5.2292566E0,1.0312653E0,0E0,0E0,0E0,0E0,0E0,0E0],"parents":[2147483647,0,0,2,2,3,3,4,4,5,5,9,9,10,10,11,11,12,12],"right_children":[2,-1,4,6,8,10,-1,-1,-1,12,14,16,18,-1,-1,-1,-1,-1,-1],"split_conditions":[3.8073254E-1,-1.5844357E-1,1.4313123E0,9.112223E-1,-4.138837E-2,6.821482E-1,-9.74752E-2,9.703826E-3,-1.3839953E-1,3.9348957E-1,-4.135615E-2,-2.5920057E-1,1.2812295E0,8.7181844E-2,-1.1787796E-1,1.6454859E-1,-1.3933448E-1,1.7761841E-1,4.7315013E-2],"split_indices":[1,0,1,2,4,3,0,0,0,1,4,3,1,0,0,0,0,0,0],"split_type":[0,0,0,0,0,0,0,0,0,0,0,0,0,0,0,0,0,0,0],"sum_hessian":[3.7459003E2,1.2987625E2,2.4471378E2,2.3768271E2,7.0310645E0,2.3631982E2,1.3628755E0,1.0083301E0,6.0227346E0,2.3366434E2,2.6554956E0,2.8012655E1,2.0565167E2,1.0234962E0,1.6319995E0,2.2317963E1,5.694692E0,1.9914452E2,6.5071673E0],"tree_param":{"num_deleted":"0","num_feature":"6","num_nodes":"19","size_leaf_vector":"1"}},{"base_weights":[1.9902022E-1,3.740362E-1,-3.9778343E-1,-4.8454824E-1,5.517665E-1,-1.5772903E-1,-1.4299055E-2,-1.571525E-1,9.496544E-3,5.652095E-1,-1.2430924E-1,5.7079357E-1,-3.942139E-1,1.6878314E-1,-1.1811947E-1,5.983761E-1,2.3717415E-1,1.3223367E-2,6.436164E-1,-1.517078E-1,1.5582266E-1,1.8574342E-1,4.0094832E-1,-1.4177173E-1,5.414552E-1,2.292331E-1,2.923243E-1,-7.640091E-2,1.7055398E-1,6.4549245E-2,1.8149972E-1,-7.4134753E-3,1.459344E-1],"categories":[],"categories_nodes":[],"categories_segments":[],"categories_sizes":[],"default_left":[0,0,1,0,1,0,0,0,0,0,0,1,0,0,0,1,0,0,0,0,0,0,0,0,1,0,0,0,0,0,0,0,0],"id":27,"left_children":[1,3,5,7,9,-1,11,-1,13,15,-1,17,19,-1,-1,21,23,-1,25,-1,-1,-1,27,-1,29,-1,31,-1,-1,-1,-1,-1,-1],"loss_changes":[4.194975E1,4.7567226E1,4.4700413E0,1.0472927E0,3.5755997E0,0E0,5.5279717E0,0E0,1.3228359E0,2.6233673E0,0E0,3.4755206E-1,1.7960987E0,0E0,0E0,6.955261E-1,5.653848E0,0E0,1.3797641E-1,0E0,0E0,0E0,2.863353E0,0E0,2.4221897E-1,0E0,2.4588081E-1,0E0,0E0,0E0,0E0,0E0,0E0],"parents":[2147483647,0,0,1,1,2,2,3,3,4,4,6,6,8,8,9,9,11,11,12,12,15,15,16,16,18,18,22,22,24,24,26,26],"right_children":[2,4,6,8,10,-1,12,-1,14,16,-1,18,20,-1,-1,22,24,-1,26,-1,-1,-1,28,-1,30,-1,32,-1,-1,-1,-1,-1,-1],"split_conditions":[3.9348957E-1,-4.4472295E-1,7.002762E-2,-5.1976436E-1,1.0699059E0,-1.5772903E-1,6.306204E-1,-1.571525E-1,-3.421173E-1,3.8073254E-1,-1.2430924E-1,-3.734922E-2,-3.9405473E-2,1.6878314E-1,-1.1811947E-1,1.4318945E-1,-2.7139422E-1,1.3223367E-2,5.323162E-1,-1.517078E-1,1.5582266E-1,1.8574342E-1,-2.6987648E-1,-1.4177173E-1,-2.5920057E-1,2.292331E-1,5.333858E-1,-7.640091E-2,1.7055398E-1,6.4549245E-2,1.8149972E-1,-7.4134753E-3,1.459344E-1],"split_indices":[1,1,3,1,3,0,1,0,3,1,0,5,4,0,0,3,3,0,1,0,0,0,1,0,3,0,3,0,0,0,0,0,0],"split_type":[0,0,0,0,0,0,0,0,0,0,0,0,0,0,0,0,0,0,0,0,0,0,0,0,0,0,0,0,0,0,0,0,0],"sum_hessian":[3.992E2,3.0896698E2,9.023302E1,5.2692467E1,2.562745E2,6.7376495E1,2.2856525E1,4.8754505E1,3.93796E0,2.5316687E2,3.1076486E0,8.80061E0,1.4055915E1,1.493727E0,2.444233E0,2.2917192E2,2.3994951E1,1.2639484E0,7.536661E0,1.292529E1,1.130625E0,2.0542584E2,2.3746077E1,7.034244E0,1.6960707E1,4.7367897E0,2.7998714E0,4.7278743E0,1.9018202E1,3.4795663E0,1.3481141E1,1.3947375E0,1.4051338E0],"tree_param":{"num_deleted":"0","num_feature":"6","num_nodes":"33","size_leaf_vector":"1"}},{"base_weights":[-4.219758E-1,3.186642E-1,-5.0107E-1,-1.5603492E-1,5.291398E-1,-5.158847E-1,1.2780577E-1,1.2641716E-1,-1.2960243E-1,2.0846711E-1,2.0103231E-1,-1.564056E-1,3.8677186E-2,1.5456128E-1,-9.90643E-2],"categories":[],"categories_nodes":[],"categories_segments":[],"categories_sizes":[],"default_left":[0,1,1,0,0,0,0,0,0,0,0,0,0,0,0],"id":28,"left_children":[1,3,5,7,9,11,-1,-1,-1,13,-1,-1,-1,-1,-1],"loss_changes":[1.0897381E1,1.9106975E0,2.4997292E0,1.2007842E0,4.4364166E-1,6.44825E-1,0E0,0E0,0E0,1.0610834E0,0E0,0E0,0E0,0E0,0E0],"parents":[2147483647,0,0,1,1,2,2,3,3,4,4,5,5,9,9],"right_children":[2,4,6,8,10,12,-1,-1,-1,14,-1,-1,-1,-1,-1],"split_conditions":[-2.1804307E0,-8.117349E-2,4.386575E0,-3.8966277E0,-4.0065832E-2,1.1229779E1,1.2780577E-1,1.2641716E-1,-1.2960243E-1,-4.121752E0,2.0103231E-1,-1.564056E-1,3.8677186E-2,1.5456128E-1,-9.90643E-2],"split_indices":[1,3,3,1,4,2,0,0,0,1,0,0,0,0,0],"split_type":[0,0,0,0,0,0,0,0,0,0,0,0,0,0,0],"sum_hessian":[1.8229881E2,1.7297325E1,1.6500148E2,5.39294E0,1.1904386E1,1.6284283E2,2.1586537E0,1.5735781E0,3.8193622E0,4.3920975E0,7.5122876E0,1.6166354E2,1.1792772E0,2.8263142E0,1.5657833E0],"tree_param":{"num_deleted":"0","num_feature":"6","num_nodes":"15","size_leaf_vector":"1"}},{"base_weights":[3.8368035E-2,5.574923E-1,-4.170406E-1,-1.130964E-1,5.7504106E-1,-4.744499E-1,4.3617895E-1,5.992801E-1,2.847303E-1,-4.930867E-1,3.856152E-1,-3.0630501E-2,5.07741E-1,6.1282134E-1,1.4774314E-1,-1.3502261E-1,4.9332422E-1,-1.0049956E-1,-1.5760773E-1,1.4880583E-1,3.601208E-2,6.043026E-1,-2.5194287E-3,6.237407E-1,3.002192E-1,-9.8346196E-2,3.940831E-1,2.688469E-1,1.945132E-1,-1.4227046E-1,5.994812E-1,1.9209862E-1,5.2874837E-2,1.8889782E-1,6.903329E-2,-5.0452992E-2,1.6508357E-1,1.5189151E-1,3.5540078E-2,1.6032669E-1,-9.6095085E-2,5.6523457E-2,2.2324012E-1],"categories":[],"categories_nodes":[],"categories_segments":[],"categories_sizes":[],"default_left":[0,0,1,0,0,0,0,1,0,0,0,0,0,1,0,0,1,1,0,0,0,0,0,0,0,0,0,0,0,0,0,0,0,0,0,0,0,0,0,0,0,0,0],"id":29,"left_children":[1,3,5,-1,7,9,11,13,15,17,19,-1,21,23,25,-1,27,29,-1,-1,-1,31,-1,33,35,-1,37,39,-1,-1,41,-1,-1,-1,-1,-1,-1,-1,-1,-1,-1,-1,-1],"loss_changes":[7.4340164E1,2.626011E0,8.414124E0,0E0,8.4690857E-1,2.7141762E0,4.788065E-1,7.199402E-1,2.221997E0,1.905529E0,5.483657E-2,0E0,5.010195E-1,2.5094223E-1,7.3568887E-1,0E0,1.9602561E-1,3.6793077E0,0E0,0E0,0E0,1.6622782E-2,0E0,1.4193726E-1,8.258588E-1,0E0,5.9552312E-2,1.1186395E0,0E0,0E0,1.5466058E-1,0E0,0E0,0E0,0E0,0E0,0E0,0E0,0E0,0E0,0E0,0E0,0E0],"parents":[2147483647,0,0,1,1,2,2,4,4,5,5,6,6,7,7,8,8,9,9,10,10,12,12,13,13,14,14,16,16,17,17,21,21,23,23,24,24,26,26,27,27,30,30],"right_children":[2,4,6,-1,8,10,12,14,16,18,20,-1,22,24,26,-1,28,30,-1,-1,-1,32,-1,34,36,-1,38,40,-1,-1,42,-1,-1,-1,-1,-1,-1,-1,-1,-1,-1,-1,-1],"split_conditions":[-3.9219397E-1,-3.7465448E0,8.333493E-1,-1.130964E-1,-5.1976436E-1,4.923583E0,-4.13894E-2,3.7281187E0,-3.1529132E-1,-2.6987648E-1,2.670711E-1,-3.0630501E-2,3.9348957E-1,-3.6984116E-2,-1.9455512E0,-1.3502261E-1,-5.1908754E-2,1.4318945E-1,-1.5760773E-1,1.4880583E-1,3.601208E-2,1.1574848E0,-2.5194287E-3,-5.558143E-2,-2.1804307E0,-9.8346196E-2,-1.0450542E0,-4.4472295E-1,1.945132E-1,-1.4227046E-1,3.6267492E-1,1.9209862E-1,5.2874837E-2,1.8889782E-1,6.903329E-2,-5.0452992E-2,1.6508357E-1,1.5189151E-1,3.5540078E-2,1.6032669E-1,-9.6095085E-2,5.6523457E-2,2.2324012E-1],"split_indices":[1,1,3,0,1,2,4,3,3,1,0,0,1,4,1,0,3,3,0,0,0,0,0,2,1,0,1,1,0,0,3,0,0,0,0,0,0,0,0,0,0,0,0],"split_type":[0,0,0,0,0,0,0,0,0,0,0,0,0,0,0,0,0,0,0,0,0,0,0,0,0,0,0,0,0,0,0,0,0,0,0,0,0,0,0,0,0,0,0],"sum_hessian":[3.124661E2,1.4591367E2,1.6655243E2,2.3120744E0,1.436016E2,1.564683E2,1.0084123E1,1.3155347E2,1.2048121E1,1.5356734E2,2.9009717E0,1.1332445E0,8.950878E0,1.2737636E2,4.1771097E0,2.4079762E0,9.640145E0,1.1977505E1,1.4158983E2,1.4361988E0,1.4647729E0,7.3963265E0,1.5545515E0,1.2211549E2,5.2608657E0,1.3125136E0,2.864596E0,5.055285E0,4.5848603E0,8.018664E0,3.9588401E0,6.364743E0,1.0315833E0,1.197158E2,2.3996933E0,1.9450219E0,3.3158436E0,1.4409108E0,1.4236851E0,3.548606E0,1.506679E0,1.6298072E0,2.329033E0],"tree_param":{"num_deleted":"0","num_feature":"6","num_nodes":"43","size_leaf_vector":"1"}},{"base_weights":[-3.5009328E-1,-1.543745E-1,5.0224704E-1,5.3665614E-1,1.1673417E-2,1.7353512E-1,2.683364E-1,-8.824096E-2,1.487087E-1],"categories":[],"categories_nodes":[],"categories_segments":[],"categories_sizes":[],"default_left":[0,0,0,1,0,0,0,0,0],"id":30,"left_children":[1,-1,3,5,-1,-1,7,-1,-1],"loss_changes":[2.1588E1,0E0,3.7955093E-1,1.0609627E-1,0E0,0E0,7.8595066E-1,0E0,0E0],"parents":[2147483647,0,0,2,2,3,3,6,6],"right_children":[2,-1,4,6,-1,-1,8,-1,-1],"split_conditions":[1.2812295E0,-1.543745E-1,-5.571904E-2,7.002762E-2,1.1673417E-2,1.7353512E-1,1.468833E0,-8.824096E-2,1.487087E-1],"split_indices":[1,0,2,3,0,0,1,0,0],"split_type":[0,0,0,0,0,0,0,0,0],"sum_hessian":[1.511366E2,1.2701999E2,2.4116596E1,2.2302109E1,1.814489E0,1.8296389E1,4.005718E0,1.0685307E0,2.9371877E0],"tree_param":{"num_deleted":"0","num_feature":"6","num_nodes":"9","size_leaf_vector":"1"}},{"base_weights":[1.3737258E-1,-1.5569317E-1,4.6381307E-1,4.8985517E-1,-3.6756364E-1,5.061557E-1,7.171782E-2,3.2550083E-3,-1.3105553E-1,5.1301426E-1,-9.143434E-2,-1.4255661E-1,3.9342847E-1,3.730998E-1,5.6202126E-1,1.6013052E-1,-3.2842573E-2,1.4558367E-1,-1.8901013E-1,1.7416129E-1,4.2774513E-2],"categories":[],"categories_nodes":[],"categories_segments":[],"categories_sizes":[],"default_left":[0,0,0,1,0,0,0,0,0,0,0,0,0,1,0,0,0,0,0,0,0],"id":31,"left_children":[1,-1,3,5,7,9,11,-1,-1,13,-1,-1,15,17,19,-1,-1,-1,-1,-1,-1],"loss_changes":[6.507866E1,0E0,4.5670967E0,1.305748E0,1.8108344E-1,1.2094955E0,1.6918191E0,0E0,0E0,1.0802917E0,0E0,0E0,4.7712034E-1,6.1322856E0,9.84005E-1,0E0,0E0,0E0,0E0,0E0,0E0],"parents":[2147483647,0,0,2,2,3,3,4,4,5,5,6,6,9,9,12,12,13,13,14,14],"right_children":[2,-1,4,6,8,10,12,-1,-1,14,-1,-1,16,18,20,-1,-1,-1,-1,-1,-1],"split_conditions":[3.8073254E-1,-1.5569317E-1,1.4313123E0,4.8461127E-1,-5.626683E-2,9.112223E-1,6.306204E-1,3.2550083E-3,-1.3105553E-1,4.6552932E-1,-9.143434E-2,-1.4255661E-1,-3.7285004E-2,-9.824458E-2,1.2812295E0,1.6013052E-1,-3.2842573E-2,1.4558367E-1,-1.8901013E-1,1.7416129E-1,4.2774513E-2],"split_indices":[1,0,1,3,2,2,1,0,0,1,0,0,5,3,1,0,0,0,0,0,0],"split_type":[0,0,0,0,0,0,0,0,0,0,0,0,0,0,0,0,0,0,0,0,0],"sum_hessian":[3.0161462E2,9.998744E1,2.0162718E2,1.9590154E2,5.725647E0,1.8834851E2,7.5530176E0,1.0166528E0,4.708994E0,1.871332E2,1.2153155E0,2.6207268E0,4.9322906E0,5.0777416E1,1.3635579E2,3.808204E0,1.1240869E0,4.6134495E1,4.642921E0,1.3022295E2,6.132838E0],"tree_param":{"num_deleted":"0","num_feature":"6","num_nodes":"21","size_leaf_vector":"1"}},{"base_weights":[1.8846881E-1,3.4957016E-1,-3.6439693E-1,-1.5374207E-1,5.0531226E-1,-1.546149E-1,3.5671953E-2,5.228813E-1,-2.6906377E-1,5.58928E-1,-3.6379516E-1,5.538763E-1,2.2274059E-1,-1.5713756E-1,4.611035E-2,1.7105052E-2,6.26926E-1,-1.4637743E-1,1.4072853E-1,3.2446885E-1,1.7392188E-1,-1.351542E-1,4.960417E-1,1.0866964E-1,-8.687798E-2,2.1755789E-1,3.0590004E-1,1.4548507E-1,-9.7055905E-2,1.5850702E-1,9.848544E-3,2.905789E-3,1.3967247E-1],"categories":[],"categories_nodes":[],"categories_segments":[],"categories_sizes":[],"default_left":[0,0,1,0,1,0,0,0,0,1,0,0,0,0,1,0,0,0,0,1,0,0,0,0,0,0,0,0,0,0,0,0,0],"id":32,"left_children":[1,3,5,-1,7,-1,9,11,13,15,17,19,21,-1,23,-1,25,-1,-1,27,-1,-1,29,-1,-1,-1,31,-1,-1,-1,-1,-1,-1],"loss_changes":[2.8786592E1,3.3779495E1,4.433648E0,0E0,3.0246086E0,0E0,4.585051E0,1.8079948E0,4.546994E-1,2.8743887E-1,1.5205159E0,9.2440796E-1,4.1068916E0,0E0,4.568153E-1,0E0,3.809309E-2,0E0,0E0,2.368612E0,0E0,0E0,2.1448445E-1,0E0,0E0,0E0,1.6863069E-1,0E0,0E0,0E0,0E0,0E0,0E0],"parents":[2147483647,0,0,1,1,2,2,4,4,6,6,7,7,8,8,9,9,10,10,11,11,12,12,14,14,16,16,19,19,22,22,26,26],"right_children":[2,4,6,-1,8,-1,10,12,14,16,18,20,22,-1,24,-1,26,-1,-1,28,-1,-1,30,-1,-1,-1,32,-1,-1,-1,-1,-1,-1],"split_conditions":[3.9348957E-1,-5.1976436E-1,7.002762E-2,-1.5374207E-1,8.333493E-1,-1.546149E-1,6.306204E-1,3.8073254E-1,3.5611248E-1,-3.734922E-2,8.556345E-1,-2.9464012E-1,-2.7139422E-1,-1.5713756E-1,1.0684434E0,1.7105052E-2,5.323162E-1,-1.4637743E-1,1.4072853E-1,-5.1908754E-2,1.7392188E-1,-1.351542E-1,1.1574848E0,1.0866964E-1,-8.687798E-2,2.1755789E-1,5.333858E-1,1.4548507E-1,-9.7055905E-2,1.5850702E-1,9.848544E-3,2.905789E-3,1.3967247E-1],"split_indices":[1,1,3,0,3,0,1,1,0,5,0,1,3,0,0,0,1,0,0,3,0,0,0,0,0,0,3,0,0,0,0,0,0],"split_type":[0,0,0,0,0,0,0,0,0,0,0,0,0,0,0,0,0,0,0,0,0,0,0,0,0,0,0,0,0,0,0,0,0],"sum_hessian":[3.207699E2,2.4867532E2,7.20946E1,3.7701923E1,2.1097339E2,5.2131813E1,1.9962782E1,2.0661057E2,4.362822E0,8.469511E0,1.1493271E1,1.8650517E2,2.0105392E1,2.046721E0,2.3161008E0,1.2298883E0,7.2396226E0,1.0363003E1,1.1302681E0,2.0268572E1,1.662366E2,5.617855E0,1.4487537E1,1.1521413E0,1.1639596E0,4.578994E0,2.6606288E0,1.644692E1,3.8216515E0,1.3411294E1,1.0762436E0,1.3033797E0,1.357249E0],"tree_param":{"num_deleted":"0","num_feature":"6","num_nodes":"33","size_leaf_vector":"1"}},{"base_weights":[-4.062364E-1,2.6363078E-1,-4.9449545E-1,-1.9118676E-1,4.743711E-1,-5.0743043E-1,8.207915E-2,1.1185045E-1,-1.2825193E-1,1.5308069E-1,1.834019E-1,-1.5433902E-1,3.74342E-2,1.3755628E-1,-9.636534E-2],"categories":[],"categories_nodes":[],"categories_segments":[],"categories_sizes":[],"default_left":[0,1,1,0,0,0,0,0,0,0,0,0,0,0,0],"id":33,"left_children":[1,3,5,7,9,11,-1,-1,-1,13,-1,-1,-1,-1,-1],"loss_changes":[8.639631E0,1.7592158E0,1.4057693E0,9.890808E-1,4.425571E-1,6.2335587E-1,0E0,0E0,0E0,8.6808056E-1,0E0,0E0,0E0,0E0,0E0],"parents":[2147483647,0,0,1,1,2,2,3,3,4,4,5,5,9,9],"right_children":[2,4,6,8,10,12,-1,-1,-1,14,-1,-1,-1,-1,-1],"split_conditions":[-1.9455512E0,-8.117349E-2,4.386575E0,-3.8966277E0,-4.0065832E-2,1.1229779E1,8.207915E-2,1.1185045E-1,-1.2825193E-1,-4.121752E0,1.834019E-1,-1.5433902E-1,3.74342E-2,1.3755628E-1,-9.636534E-2],"split_indices":[1,3,3,1,4,2,0,0,0,1,0,0,0,0,0],"split_type":[0,0,0,0,0,0,0,0,0,0,0,0,0,0,0],"sum_hessian":[1.4292758E2,1.640793E1,1.26519646E2,5.2247396E0,1.1183191E1,1.2475804E2,1.7616069E0,1.3721564E0,3.852583E0,3.9754698E0,7.2077217E0,1.2356966E2,1.188381E0,2.4384282E0,1.5370417E0],"tree_param":{"num_deleted":"0","num_feature":"6","num_nodes":"15","size_leaf_vector":"1"}},{"base_weights":[3.786697E-2,5.1647043E-1,-3.9863318E-1,-1.0495706E-1,5.334507E-1,-4.594699E-1,3.9014918E-1,5.44664E-1,3.6238123E-2,-4.8056328E-1,3.3172458E-1,5.3953636E-1,5.2096188E-2,5.6892383E-1,2.6805165E-1,1.1056682E-1,-9.496834E-2,-7.3921904E-2,-1.5514143E-1,1.3602917E-1,2.3210041E-2,1.9945501E-1,2.4967247E-1,-6.121053E-2,8.3179355E-2,1.7513803E-1,2.2175264E-1,-1.23431966E-1,4.640283E-1,-1.3579611E-1,5.0704503E-1,1.17499165E-1,-1.6347991E-2,-5.4246847E-2,1.4607681E-1,7.354919E-2,1.8112901E-1,4.089E-2,1.9807123E-1],"categories":[],"categories_nodes":[],"categories_segments":[],"categories_sizes":[],"default_left":[0,0,1,0,0,0,1,0,1,0,0,0,0,1,0,0,0,1,0,0,0,0,0,0,0,0,0,0,1,0,0,0,0,0,0,0,0,0,0],"id":34,"left_children":[1,3,5,-1,7,9,11,13,15,17,19,21,23,25,27,-1,-1,29,-1,-1,-1,-1,31,-1,-1,-1,33,-1,35,-1,37,-1,-1,-1,-1,-1,-1,-1,-1],"loss_changes":[5.2705772E1,1.9563904E0,6.513401E0,0E0,6.403351E-1,2.2122364E0,4.7651696E-1,6.239586E-1,5.4839545E-1,1.7497692E0,8.211565E-2,8.1848145E-2,2.970252E-1,4.1509247E-1,1.6850996E0,0E0,0E0,2.6690865E0,0E0,0E0,0E0,0E0,1.7944905E-1,0E0,0E0,0E0,7.226815E-1,0E0,1.3269305E-1,0E0,1.8530548E-1,0E0,0E0,0E0,0E0,0E0,0E0,0E0,0E0],"parents":[2147483647,0,0,1,1,2,2,4,4,5,5,6,6,7,7,8,8,9,9,10,10,11,11,12,12,13,13,14,14,17,17,22,22,26,26,28,28,30,30],"right_children":[2,4,6,-1,8,10,12,14,16,18,20,22,24,26,28,-1,-1,30,-1,-1,-1,-1,32,-1,-1,-1,34,-1,36,-1,38,-1,-1,-1,-1,-1,-1,-1,-1],"split_conditions":[-3.9219397E-1,-3.7465448E0,8.333493E-1,-1.0495706E-1,-5.558143E-2,4.923583E0,-3.7345015E-2,-5.1976436E-1,5.8216035E-1,-2.6987648E-1,1.2820222E1,-5.593974E-2,-3.73094E-2,-3.6984116E-2,-3.1529132E-1,1.1056682E-1,-9.496834E-2,1.4318945E-1,-1.5514143E-1,1.3602917E-1,2.3210041E-2,1.9945501E-1,-3.2653797E-1,-6.121053E-2,8.3179355E-2,1.7513803E-1,-2.1804307E0,-1.23431966E-1,-5.1908754E-2,-1.3579611E-1,3.6267492E-1,1.17499165E-1,-1.6347991E-2,-5.4246847E-2,1.4607681E-1,7.354919E-2,1.8112901E-1,4.089E-2,1.9807123E-1],"split_indices":[1,1,3,0,2,2,5,1,3,1,2,2,5,4,3,0,0,3,0,0,0,0,0,0,0,0,1,0,3,0,3,0,0,0,0,0,0,0,0],"split_type":[0,0,0,0,0,0,0,0,0,0,0,0,0,0,0,0,0,0,0,0,0,0,0,0,0,0,0,0,0,0,0,0,0,0,0,0,0,0,0],"sum_hessian":[2.5030328E2,1.19306114E2,1.3099718E2,1.9166312E0,1.1738948E2,1.2200476E2,8.992415E0,1.1470712E2,2.6823556E0,1.1921898E2,2.7857876E0,5.8231344E0,3.1692812E0,1.04486565E2,1.0220559E1,1.358273E0,1.3240825E0,1.0087413E1,1.0913156E2,1.3548605E0,1.4309269E0,3.1623344E0,2.6608E0,1.5266062E0,1.6426752E0,9.9541565E1,4.945003E0,2.0417962E0,8.178762E0,6.240257E0,3.8471563E0,1.6178741E0,1.0429258E0,2.0900388E0,2.8549643E0,4.2603498E0,3.9184132E0,1.67739E0,2.1697664E0],"tree_param":{"num_deleted":"0","num_feature":"6","num_nodes":"39","size_leaf_vector":"1"}},{"base_weights":[-3.3971736E-1,-1.526656E-1,4.5968282E-1,4.9906126E-1,5.4991567E-3,1.6370885E-1,2.2383882E-1,-4.9972083E-2,1.298179E-1],"categories":[],"categories_nodes":[],"categories_segments":[],"categories_sizes":[],"default_left":[0,0,0,1,0,0,0,0,0],"id":35,"left_children":[1,-1,3,5,-1,-1,7,-1,-1],"loss_changes":[1.6278542E1,0E0,3.6012936E-1,1.2773514E-1,0E0,0E0,4.404014E-1,0E0,0E0],"parents":[2147483647,0,0,2,2,3,3,6,6],"right_children":[2,-1,4,6,-1,-1,8,-1,-1],"split_conditions":[1.2812295E0,-1.526656E-1,-5.571904E-2,7.002762E-2,5.4991567E-3,1.6370885E-1,1.5063537E0,-4.9972083E-2,1.298179E-1],"split_indices":[1,0,2,3,0,0,1,0,0],"split_type":[0,0,0,0,0,0,0,0,0],"sum_hessian":[1.17644325E2,9.739677E1,2.0247553E1,1.8468956E1,1.7785964E0,1.4952581E1,3.516375E0,1.2962469E0,2.220128E0],"tree_param":{"num_deleted":"0","num_feature":"6","num_nodes":"9","size_leaf_vector":"1"}},{"base_weights":[1.2750193E-1,-1.534577E-1,4.2794022E-1,4.5252344E-1,-3.4000245E-1,4.6946153E-1,4.815895E-2,-3.939914E-3,-1.2314381E-1,3.231905E-1,5.233889E-1,-3.7002E-1,4.029043E-1,4.2700818E-1,-1.7034043E-1,5.4368854E-1,1.3057485E-1,-1.2854524E-1,-2.9341783E-2,1.3494878E-1,3.594168E-2,1.4518307E-1,-9.5790744E-2,1.6514467E-1,-1.8026303E-2,-9.283313E-2,9.008024E-2],"categories":[],"categories_nodes":[],"categories_segments":[],"categories_sizes":[],"default_left":[0,0,0,1,0,0,0,0,0,1,0,0,0,0,0,0,0,0,0,0,0,0,0,0,0,0,0],"id":36,"left_children":[1,-1,3,5,7,9,11,-1,-1,13,15,17,19,21,-1,23,25,-1,-1,-1,-1,-1,-1,-1,-1,-1,-1],"loss_changes":[4.655641E1,0E0,3.2634354E0,1.0735016E0,1.2546402E-1,1.0415497E0,1.2688625E0,0E0,0E0,4.308699E0,8.1035423E-1,2.1523356E-2,6.720066E-3,1.8517313E0,0E0,4.6287727E-1,5.9671485E-1,0E0,0E0,0E0,0E0,0E0,0E0,0E0,0E0,0E0,0E0],"parents":[2147483647,0,0,2,2,3,3,4,4,5,5,6,6,9,9,10,10,11,11,12,12,13,13,15,15,16,16],"right_children":[2,-1,4,6,8,10,12,-1,-1,14,16,18,20,22,-1,24,26,-1,-1,-1,-1,-1,-1,-1,-1,-1,-1],"split_conditions":[3.8073254E-1,-1.534577E-1,1.4313123E0,4.8461127E-1,-4.1387804E-2,4.6552932E-1,7.184189E-1,-3.939914E-3,-1.2314381E-1,-9.824458E-2,1.2812295E0,6.8259746E-1,6.821482E-1,1.3588256E-2,-1.7034043E-1,6.301824E-1,-1.5921277E-1,-1.2854524E-1,-2.9341783E-2,1.3494878E-1,3.594168E-2,1.4518307E-1,-9.5790744E-2,1.6514467E-1,-1.8026303E-2,-9.283313E-2,9.008024E-2],"split_indices":[1,0,1,3,4,1,1,0,0,3,1,0,3,2,0,2,3,0,0,0,0,0,0,0,0,0,0],"split_type":[0,0,0,0,0,0,0,0,0,0,0,0,0,0,0,0,0,0,0,0,0,0,0,0,0,0,0],"sum_hessian":[2.4035587E2,7.664038E1,1.6371548E2,1.5903522E2,4.680267E0,1.5248683E2,6.5483804E0,1.0405549E0,3.6397119E0,4.2959053E1,1.0952778E2,2.9857166E0,3.5626638E0,3.894228E1,4.016774E0,1.0378059E2,5.7471967E0,1.9852655E0,1.0004511E0,2.5508933E0,1.0117707E0,3.650862E1,2.4336574E0,1.0271312E2,1.0674642E0,1.3703299E0,4.376867E0],"tree_param":{"num_deleted":"0","num_feature":"6","num_nodes":"27","size_leaf_vector":"1"}},{"base_weights":[1.7837916E-1,3.287846E-1,-3.3947745E-1,-4.556644E-1,4.8310423E-1,-1.5192756E-1,5.411689E-2,-1.5071604E-1,-2.718827E-2,5.0079244E-1,-2.426639E-1,4.9564204E-1,-3.319763E-1,1.2696059E-1,-1.09549426E-1,5.32795E-1,2.173113E-1,-1.4780423E-1,5.0367676E-2,1.4512154E-2,1.6801059E-1,-1.4103489E-1,1.2598103E-1,1.6631867E-1,3.2609373E-1,-1.2863106E-1,4.593997E-1,-2.6932972E-2,4.9824834E-2,-7.0854165E-2,1.5842184E-1,5.1208626E-2,1.593296E-1],"categories":[],"categories_nodes":[],"categories_segments":[],"categories_sizes":[],"default_left":[0,0,1,0,1,0,0,0,0,0,0,1,0,0,0,1,0,0,0,0,0,0,0,0,0,0,0,0,0,0,0,0,0],"id":37,"left_children":[1,3,5,7,9,-1,11,-1,13,15,17,19,21,-1,-1,23,25,-1,27,-1,-1,-1,-1,-1,29,-1,31,-1,-1,-1,-1,-1,-1],"loss_changes":[2.0126286E1,2.4387554E1,3.860066E0,6.5363264E-1,2.2693253E0,0E0,3.2799113E0,0E0,8.143414E-1,1.3688927E0,3.6578992E-1,2.3000741E-1,1.272309E0,0E0,0E0,4.7270203E-1,3.0576396E0,0E0,6.4371414E-2,0E0,0E0,0E0,0E0,0E0,1.9731802E0,0E0,1.94736E-1,0E0,0E0,0E0,0E0,0E0,0E0],"parents":[2147483647,0,0,1,1,2,2,3,3,4,4,6,6,8,8,9,9,10,10,11,11,12,12,15,15,16,16,18,18,24,24,26,26],"right_children":[2,4,6,8,10,-1,12,-1,14,16,18,20,22,-1,-1,24,26,-1,28,-1,-1,-1,-1,-1,30,-1,32,-1,-1,-1,-1,-1,-1],"split_conditions":[3.9348957E-1,-4.4472295E-1,7.002762E-2,-5.1976436E-1,8.333493E-1,-1.5192756E-1,6.306204E-1,-1.5071604E-1,-3.421173E-1,3.8073254E-1,3.5611248E-1,-3.734922E-2,8.556345E-1,1.2696059E-1,-1.09549426E-1,1.4318945E-1,-2.7139422E-1,-1.4780423E-1,-4.4752248E-2,1.4512154E-2,1.6801059E-1,-1.4103489E-1,1.2598103E-1,1.6631867E-1,-2.6987648E-1,-1.2863106E-1,-5.6153566E-2,-2.6932972E-2,4.9824834E-2,-7.0854165E-2,1.5842184E-1,5.1208626E-2,1.593296E-1],"split_indices":[1,1,3,1,3,0,1,0,3,1,0,5,0,0,0,3,3,0,1,0,0,0,0,0,1,0,2,0,0,0,0,0,0],"split_type":[0,0,0,0,0,0,0,0,0,0,0,0,0,0,0,0,0,0,0,0,0,0,0,0,0,0,0,0,0,0,0,0,0],"sum_hessian":[2.5596579E2,1.9863861E2,5.7327183E1,3.2332233E1,1.6630638E2,4.0051987E1,1.7275196E1,2.8997734E1,3.3344986E0,1.6265225E2,3.6541307E0,7.9267054E0,9.348491E0,1.3214113E0,2.0130873E0,1.453626E2,1.7289652E1,1.6041416E0,2.0499892E0,1.2179797E0,6.708726E0,8.214172E0,1.1343182E0,1.300863E2,1.5276291E1,4.5024524E0,1.2787199E1,1.0285074E0,1.0214818E0,3.9925108E0,1.128378E1,3.2164598E0,9.57074E0],"tree_param":{"num_deleted":"0","num_feature":"6","num_nodes":"33","size_leaf_vector":"1"}},{"base_weights":[-3.899861E-1,2.520582E-1,-4.838326E-1,-1.78003E-1,4.39637E-1,-4.997957E-1,7.399705E-2,9.9513315E-2,-1.21725045E-1,1.4170556E-1,1.659223E-1,-1.5263295E-1,3.4467977E-2,1.235753E-1,-8.719394E-2],"categories":[],"categories_nodes":[],"categories_segments":[],"categories_sizes":[],"default_left":[0,1,1,0,0,0,0,0,0,0,0,0,0,0,0],"id":38,"left_children":[1,3,5,7,9,11,-1,-1,-1,13,-1,-1,-1,-1,-1],"loss_changes":[6.91984E0,1.2919681E0,1.2750931E0,7.476533E-1,2.8541946E-1,5.939007E-1,0E0,0E0,0E0,6.23569E-1,0E0,0E0,0E0,0E0,0E0],"parents":[2147483647,0,0,1,1,2,2,3,3,4,4,5,5,9,9],"right_children":[2,4,6,8,10,12,-1,-1,-1,14,-1,-1,-1,-1,-1],"split_conditions":[-1.9455512E0,-8.117349E-2,4.386575E0,-3.8966277E0,-4.0065832E-2,1.1229779E1,7.399705E-2,9.9513315E-2,-1.21725045E-1,-4.121752E0,1.659223E-1,-1.5263295E-1,3.4467977E-2,1.235753E-1,-8.719394E-2],"split_indices":[1,3,3,1,4,2,0,0,0,1,0,0,0,0,0],"split_type":[0,0,0,0,0,0,0,0,0,0,0,0,0,0,0],"sum_hessian":[1.11821266E2,1.404532E1,9.777595E1,4.281102E0,9.764217E0,9.599403E1,1.7819148E0,1.1811398E0,3.0999622E0,3.312768E0,6.45145E0,9.478155E1,1.2124814E0,2.0677347E0,1.2450331E0],"tree_param":{"num_deleted":"0","num_feature":"6","num_nodes":"15","size_leaf_vector":"1"}},{"base_weights":[3.837467E-2,4.8207676E-1,-3.792385E-1,-9.704405E-2,4.9880823E-1,-4.706084E-1,1.6081324E-1,5.115682E-1,9.127342E-3,-4.9721456E-1,2.871838E-1,3.549346E-1,-1.2588501E-1,5.367083E-1,2.5109088E-1,9.779046E-2,-8.762482E-2,-1.0605189E-1,-1.5318358E-1,1.2601893E-1,1.129122E-2,-1.6155957E-1,5.055084E-1,5.528433E-1,1.9325605E-1,-1.13152415E-1,4.2703295E-1,-1.0543698E-1,9.57393E-2,2.8332382E-2,-1.05109215E-1,2.0238663E-1,2.3993912E-1,1.685215E-1,7.099673E-2,-4.6643972E-2,1.3079488E-1,6.9646925E-2,1.6680379E-1,-9.570921E-2,1.5697114E-1],"categories":[],"categories_nodes":[],"categories_segments":[],"categories_sizes":[],"default_left":[0,0,1,0,0,0,0,0,1,0,0,0,0,1,0,0,0,1,0,0,0,0,0,1,0,0,1,0,0,0,0,0,0,0,0,0,0,0,0,0,0],"id":39,"left_children":[1,3,5,-1,7,9,11,13,15,17,19,21,-1,23,25,-1,-1,27,-1,-1,-1,29,31,33,35,-1,37,-1,-1,-1,-1,-1,39,-1,-1,-1,-1,-1,-1,-1,-1],"loss_changes":[3.733225E1,1.4774609E0,5.1995907E0,0E0,5.9550476E-1,1.9385796E0,1.9259641E0,4.781475E-1,4.2518264E-1,3.987007E-1,1.05387956E-1,1.0429507E0,0E0,3.6130524E-1,1.2794383E0,0E0,0E0,5.4244405E-1,0E0,0E0,0E0,2.0457216E-1,2.788298E-1,9.248924E-2,5.187955E-1,0E0,8.137512E-2,0E0,0E0,0E0,0E0,0E0,1.0172296E0,0E0,0E0,0E0,0E0,0E0,0E0,0E0,0E0],"parents":[2147483647,0,0,1,1,2,2,4,4,5,5,6,6,7,7,8,8,9,9,10,10,11,11,13,13,14,14,17,17,21,21,22,22,23,23,24,24,26,26,32,32],"right_children":[2,4,6,-1,8,10,12,14,16,18,20,22,-1,24,26,-1,-1,28,-1,-1,-1,30,32,34,36,-1,38,-1,-1,-1,-1,-1,40,-1,-1,-1,-1,-1,-1,-1,-1],"split_conditions":[-3.9219397E-1,-3.7465448E0,3.6267492E-1,-9.704405E-2,-5.558143E-2,4.923583E0,5.323162E-1,-5.1976436E-1,5.8216035E-1,-2.9464012E-1,2.670711E-1,-4.138689E-2,-1.2588501E-1,-3.6984116E-2,-3.1529132E-1,9.779046E-2,-8.762482E-2,9.441489E-2,-1.5318358E-1,1.2601893E-1,1.129122E-2,3.5611248E-1,-9.2028335E-2,3.7281187E0,-2.1804307E0,-1.13152415E-1,-5.1908754E-2,-1.0543698E-1,9.57393E-2,2.8332382E-2,-1.05109215E-1,2.0238663E-1,1.0699059E0,1.685215E-1,7.099673E-2,-4.6643972E-2,1.3079488E-1,6.9646925E-2,1.6680379E-1,-9.570921E-2,1.5697114E-1],"split_indices":[1,1,3,0,2,2,1,1,3,1,0,4,0,4,3,0,0,3,0,0,0,0,1,3,1,0,3,0,0,0,0,0,3,0,0,0,0,0,0,0,0],"split_type":[0,0,0,0,0,0,0,0,0,0,0,0,0,0,0,0,0,0,0,0,0,0,0,0,0,0,0,0,0,0,0,0,0,0,0,0,0,0,0,0,0],"sum_hessian":[1.9948708E2,9.66475E1,1.02839584E2,1.5934856E0,9.5054016E1,8.806815E1,1.4771431E1,9.259647E1,2.457544E0,8.5413155E1,2.6549969E0,1.1360482E1,3.410949E0,8.3478966E1,9.117504E0,1.1576374E0,1.2999066E0,3.1237845E0,8.228937E1,1.2865982E0,1.3683985E0,2.5478747E0,8.812608E0,7.9150894E1,4.3280764E0,1.7444745E0,7.373029E0,2.0905635E0,1.0332209E0,1.2936295E0,1.2542452E0,4.443021E0,4.3695865E0,7.6229774E1,2.9211156E0,1.9236839E0,2.4043927E0,4.0515103E0,3.3215187E0,1.4272922E0,2.9422944E0],"tree_param":{"num_deleted":"0","num_feature":"6","num_nodes":"41","size_leaf_vector":"1"}},{"base_weights":[-3.296975E-1,-1.5119019E-1,4.2397746E-1,4.6765992E-1,1.5201838E-3,1.557866E-1,1.8919627E-1,-4.803922E-2,1.17482565E-1],"categories":[],"categories_nodes":[],"categories_segments":[],"categories_sizes":[],"default_left":[0,0,0,1,0,0,0,0,0],"id":40,"left_children":[1,-1,3,5,-1,-1,7,-1,-1],"loss_changes":[1.233435E1,0E0,3.2470703E-1,1.342988E-1,0E0,0E0,3.5282895E-1,0E0,0E0],"parents":[2147483647,0,0,2,2,3,3,6,6],"right_children":[2,-1,4,6,-1,-1,8,-1,-1],"split_conditions":[1.2812295E0,-1.5119019E-1,-5.571904E-2,7.002762E-2,1.5201838E-3,1.557866E-1,1.5063537E0,-4.803922E-2,1.17482565E-1],"split_indices":[1,0,2,3,0,0,1,0,0],"split_type":[0,0,0,0,0,0,0,0,0],"sum_hessian":[9.128277E1,7.440878E1,1.6873983E1,1.5175196E1,1.6987878E0,1.2072122E1,3.1030736E0,1.2150335E0,1.8880401E0],"tree_param":{"num_deleted":"0","num_feature":"6","num_nodes":"9","size_leaf_vector":"1"}},{"base_weights":[1.1889968E-1,-1.5154436E-1,3.9740118E-1,4.1881275E-1,-1.1722917E-1,5.206139E-1,3.3661047E-1,1.612239E-1,-4.006245E-2,-1.888252E-1,4.0089524E-1,1.0243862E-1,-1.27955E-1,4.3101588E-1,5.4166786E-2,1.2981713E-1,-1.17407605E-1,6.8526335E-2,1.4767693E-1,-9.723125E-2,1.06874034E-1],"categories":[],"categories_nodes":[],"categories_segments":[],"categories_sizes":[],"default_left":[0,0,0,0,0,0,0,0,0,1,1,0,0,0,0,0,0,0,0,0,0],"id":41,"left_children":[1,-1,3,5,-1,7,9,-1,-1,11,13,15,-1,17,19,-1,-1,-1,-1,-1,-1],"loss_changes":[3.3446236E1,0E0,2.4051342E0,9.1088676E-1,0E0,6.888523E-1,2.5967617E0,0E0,0E0,6.540271E-1,6.745138E-1,9.469603E-1,0E0,6.4856434E-1,8.564443E-1,0E0,0E0,0E0,0E0,0E0,0E0],"parents":[2147483647,0,0,2,2,3,3,5,5,6,6,9,9,10,10,11,11,13,13,14,14],"right_children":[2,-1,4,6,-1,8,10,-1,-1,12,14,16,-1,18,20,-1,-1,-1,-1,-1,-1],"split_conditions":[3.8073254E-1,-1.5154436E-1,1.468833E0,-2.787104E-1,-1.1722917E-1,1.2061881E0,3.9348957E-1,1.612239E-1,-4.006245E-2,-2.5920057E-1,5.089986E-1,-5.5886816E-2,-1.27955E-1,5.323162E-1,7.184189E-1,1.2981713E-1,-1.17407605E-1,6.8526335E-2,1.4767693E-1,-9.723125E-2,1.06874034E-1],"split_indices":[1,0,1,3,0,1,1,0,0,3,3,2,0,1,1,0,0,0,0,0,0],"split_type":[0,0,0,0,0,0,0,0,0,0,0,0,0,0,0,0,0,0,0,0,0],"sum_hessian":[1.9028789E2,5.8466427E1,1.3182146E2,1.2879129E2,3.0301654E0,5.5154007E1,7.363728E1,5.3947083E1,1.2069257E0,7.8159337E0,6.582135E1,3.7678678E0,4.0480657E0,6.0336746E1,5.4846044E0,2.3318498E0,1.436018E0,1.5103046E1,4.52337E1,2.4028263E0,3.081778E0],"tree_param":{"num_deleted":"0","num_feature":"6","num_nodes":"21","size_leaf_vector":"1"}},{"base_weights":[1.6989465E-1,3.122016E-1,-3.1587237E-1,-4.4203165E-1,4.5825556E-1,-1.4947419E-1,6.517587E-2,-1.4786603E-1,-2.8508447E-2,4.7720447E-1,-2.2512077E-1,4.3717656E-1,-3.0142224E-1,1.1253881E-1,-1.0268165E-1,5.0996965E-1,2.1121418E-1,-1.368885E-1,1.4093426E-2,4.9502438E-1,2.2019192E-3,-1.3589397E-1,1.1737326E-1,5.338397E-1,2.941157E-1,-1.2167929E-1,4.2310634E-1,1.9220234E-1,1.1847404E-1,9.326175E-2,1.6246155E-1,-6.3052766E-2,1.5008815E-1,4.2408407E-2,1.5239063E-1,-8.043353E-2,1.2196473E-1],"categories":[],"categories_nodes":[],"categories_segments":[],"categories_sizes":[],"default_left":[0,0,1,0,1,0,0,0,0,0,0,0,0,0,0,1,0,0,0,0,0,0,0,0,0,0,1,0,0,0,0,0,0,0,0,0,0],"id":42,"left_children":[1,3,5,7,9,-1,11,-1,13,15,17,19,21,-1,-1,23,25,-1,-1,27,-1,-1,-1,29,31,-1,33,-1,35,-1,-1,-1,-1,-1,-1,-1,-1],"loss_changes":[1.41909E1,1.762651E1,3.2768884E0,5.3628063E-1,1.8297043E0,0E0,2.3132677E0,0E0,6.2576896E-1,1.0229511E0,2.898959E-1,2.0393467E-1,1.0851419E0,0E0,0E0,4.3448448E-1,2.2543066E0,0E0,0E0,3.267939E-1,0E0,0E0,0E0,6.980896E-3,1.5252E0,0E0,2.2347975E-1,0E0,4.7370335E-1,0E0,0E0,0E0,0E0,0E0,0E0,0E0,0E0],"parents":[2147483647,0,0,1,1,2,2,3,3,4,4,6,6,8,8,9,9,10,10,11,11,12,12,15,15,16,16,19,19,23,23,24,24,26,26,28,28],"right_children":[2,4,6,8,10,-1,12,-1,14,16,18,20,22,-1,-1,24,26,-1,-1,28,-1,-1,-1,30,32,-1,34,-1,36,-1,-1,-1,-1,-1,-1,-1,-1],"split_conditions":[3.9348957E-1,-4.4472295E-1,7.002762E-2,-5.1976436E-1,8.333493E-1,-1.4947419E-1,6.306204E-1,-1.4786603E-1,-3.421173E-1,3.8073254E-1,3.5611248E-1,7.723811E-1,-3.9405473E-2,1.1253881E-1,-1.0268165E-1,1.4318945E-1,-2.7139422E-1,-1.368885E-1,1.4093426E-2,5.323162E-1,2.2019192E-3,-1.3589397E-1,1.1737326E-1,-3.9219397E-1,-2.6987648E-1,-1.2167929E-1,-2.5920057E-1,1.9220234E-1,4.60224E-1,9.326175E-2,1.6246155E-1,-6.3052766E-2,1.5008815E-1,4.2408407E-2,1.5239063E-1,-8.043353E-2,1.2196473E-1],"split_indices":[1,1,3,1,3,0,1,0,3,1,0,3,4,0,0,3,3,0,0,1,0,0,0,1,1,0,3,0,3,0,0,0,0,0,0,0,0],"split_type":[0,0,0,0,0,0,0,0,0,0,0,0,0,0,0,0,0,0,0,0,0,0,0,0,0,0,0,0,0,0,0,0,0,0,0,0,0],"sum_hessian":[2.0285777E2,1.5717126E2,4.5686497E1,2.5169203E1,1.3200208E2,3.0690186E1,1.4996313E1,2.2241964E1,2.9272387E0,1.2873418E2,3.2678924E0,7.3477535E0,7.64856E0,1.1947224E0,1.7325163E0,1.1379895E2,1.4935226E1,1.4008172E0,1.8670752E0,6.342515E0,1.005238E0,6.559381E0,1.0891789E0,1.0114119E2,1.265776E1,3.585058E0,1.1350168E1,4.067695E0,2.27482E0,4.7568164E0,9.638438E1,3.6676512E0,8.9901085E0,3.2444134E0,8.105755E0,1.000921E0,1.2738991E0],"tree_param":{"num_deleted":"0","num_feature":"6","num_nodes":"37","size_leaf_vector":"1"}},{"base_weights":[-3.7347317E-1,2.4091104E-1,-4.7286156E-1,-1.6584966E-1,4.095676E-1,-4.9228352E-1,6.308164E-2,8.878888E-2,-1.1498645E-1,1.5304004E-1,1.5529385E-1,-1.5115476E-1,3.4057785E-2,1.1152508E-1,-4.471988E-2],"categories":[],"categories_nodes":[],"categories_segments":[],"categories_sizes":[],"default_left":[0,1,1,0,0,0,0,0,0,0,0,0,0,0,0],"id":43,"left_children":[1,3,5,7,9,11,-1,-1,-1,13,-1,-1,-1,-1,-1],"loss_changes":[5.5138893E0,9.5813584E-1,1.1179295E0,5.6683254E-1,1.8308985E-1,5.8018875E-1,0E0,0E0,0E0,3.3452764E-1,0E0,0E0,0E0,0E0,0E0],"parents":[2147483647,0,0,1,1,2,2,3,3,4,4,5,5,9,9],"right_children":[2,4,6,8,10,12,-1,-1,-1,14,-1,-1,-1,-1,-1],"split_conditions":[-1.9455512E0,-8.117349E-2,4.386575E0,-3.8966277E0,-3.9013013E-2,1.1229779E1,6.308164E-2,8.878888E-2,-1.1498645E-1,-4.121752E0,1.5529385E-1,-1.5115476E-1,3.4057785E-2,1.1152508E-1,-4.471988E-2],"split_indices":[1,3,3,1,4,2,0,0,0,1,0,0,0,0,0],"split_type":[0,0,0,0,0,0,0,0,0,0,0,0,0,0,0],"sum_hessian":[8.743327E1,1.1976269E1,7.545701E1,3.5151591E0,8.461109E0,7.364267E1,1.8143358E0,1.009651E0,2.5055082E0,3.2242541E0,5.236855E0,7.242823E1,1.2144408E0,1.7365491E0,1.4877051E0],"tree_param":{"num_deleted":"0","num_feature":"6","num_nodes":"15","size_leaf_vector":"1"}},{"base_weights":[3.8169153E-2,4.5492026E-1,-3.6138457E-1,-8.9486025E-2,4.718402E-1,-4.5837265E-1,1.4924587E-1,4.8651958E-1,-1.2351935E-2,-4.892573E-1,2.5246683E-1,3.254299E-1,-1.18700646E-1,5.125267E-1,2.3628835E-1,8.881878E-2,-8.527688E-2,-8.026656E-2,-1.5145996E-1,1.1591517E-1,5.5041974E-3,-1.5560192E-1,4.697356E-1,5.3035486E-1,1.6926426E-1,-1.0346667E-1,3.9847162E-1,-9.581748E-2,8.12179E-2,2.4660278E-2,-9.822697E-2,1.8295762E-1,2.246348E-1,1.6238764E-1,6.3602276E-2,-3.981354E-2,1.1770625E-1,6.0950022E-2,1.5970793E-1,-8.84975E-2,1.458794E-1],"categories":[],"categories_nodes":[],"categories_segments":[],"categories_sizes":[],"default_left":[0,0,1,0,0,0,0,0,1,0,0,0,0,1,0,0,0,0,0,0,0,0,0,1,0,0,1,0,0,0,0,0,0,0,0,0,0,0,0,0,0],"id":44,"left_children":[1,3,5,-1,7,9,11,13,15,17,19,21,-1,23,25,-1,-1,27,-1,-1,-1,29,31,33,35,-1,37,-1,-1,-1,-1,-1,39,-1,-1,-1,-1,-1,-1,-1,-1],"loss_changes":[2.6664305E1,1.1391125E0,4.1198616E0,0E0,5.533314E-1,1.6382132E0,1.4548123E0,3.6544228E-1,3.559554E-1,3.8376617E-1,1.0366255E-1,8.357096E-1,0E0,3.194523E-1,9.7577107E-1,0E0,0E0,3.9133158E-1,0E0,0E0,0E0,1.6119577E-1,1.6179442E-1,1.0494423E-1,3.7343574E-1,0E0,8.580661E-2,0E0,0E0,0E0,0E0,0E0,7.888861E-1,0E0,0E0,0E0,0E0,0E0,0E0,0E0,0E0],"parents":[2147483647,0,0,1,1,2,2,4,4,5,5,6,6,7,7,8,8,9,9,10,10,11,11,13,13,14,14,17,17,21,21,22,22,23,23,24,24,26,26,32,32],"right_children":[2,4,6,-1,8,10,12,14,16,18,20,22,-1,24,26,-1,-1,28,-1,-1,-1,30,32,34,36,-1,38,-1,-1,-1,-1,-1,40,-1,-1,-1,-1,-1,-1,-1,-1],"split_conditions":[-3.9219397E-1,-3.7465448E0,3.6267492E-1,-8.9486025E-2,-5.558143E-2,4.923583E0,5.323162E-1,-5.1976436E-1,2.3739065E-1,-2.9464012E-1,2.670711E-1,-4.138689E-2,-1.18700646E-1,-3.6984116E-2,-3.1529132E-1,8.881878E-2,-8.527688E-2,1.1880217E-1,-1.5145996E-1,1.1591517E-1,5.5041974E-3,3.5611248E-1,-9.2028335E-2,3.7281187E0,-2.1804307E0,-1.0346667E-1,-5.1908754E-2,-9.581748E-2,8.12179E-2,2.4660278E-2,-9.822697E-2,1.8295762E-1,1.0699059E0,1.6238764E-1,6.3602276E-2,-3.981354E-2,1.1770625E-1,6.0950022E-2,1.5970793E-1,-8.84975E-2,1.458794E-1],"split_indices":[1,1,3,0,2,2,1,1,0,1,0,4,0,4,3,0,0,3,0,0,0,0,1,3,1,0,3,0,0,0,0,0,3,0,0,0,0,0,0,0,0],"split_type":[0,0,0,0,0,0,0,0,0,0,0,0,0,0,0,0,0,0,0,0,0,0,0,0,0,0,0,0,0,0,0,0,0,0,0,0,0,0,0,0,0],"sum_hessian":[1.5814478E2,7.7338715E1,8.080606E1,1.3338056E0,7.6004906E1,6.79938E1,1.2812262E1,7.376379E1,2.2411187E0,6.546134E1,2.532454E0,9.986253E0,2.8260086E0,6.586959E1,7.8941994E0,1.008431E0,1.2326876E0,2.632308E0,6.2829037E1,1.1972518E0,1.3352022E0,2.2864082E0,7.699845E0,6.2099274E1,3.7703164E0,1.4765401E0,6.4176593E0,1.6192064E0,1.0131016E0,1.1778456E0,1.1085626E0,3.9521954E0,3.7476494E0,5.9359573E1,2.7396998E0,1.7740581E0,1.9962581E0,3.634048E0,2.7836113E0,1.2123233E0,2.535326E0],"tree_param":{"num_deleted":"0","num_feature":"6","num_nodes":"41","size_leaf_vector":"1"}},{"base_weights":[-3.1735253E-1,-1.4984083E-1,4.003343E-1,4.4612363E-1,1.5101017E-3,1.4968327E-1,1.6813968E-1,-4.2751737E-2,1.0620977E-1],"categories":[],"categories_nodes":[],"categories_segments":[],"categories_sizes":[],"default_left":[0,0,0,1,0,0,0,0,0],"id":45,"left_children":[1,-1,3,5,-1,-1,7,-1,-1],"loss_changes":[9.6154375E0,0E0,2.717092E-1,1.1510396E-1,0E0,0E0,2.6251268E-1,0E0,0E0],"parents":[2147483647,0,0,2,2,3,3,6,6],"right_children":[2,-1,4,6,-1,-1,8,-1,-1],"split_conditions":[1.2812295E0,-1.4984083E-1,-5.571904E-2,7.002762E-2,1.5101017E-3,1.4968327E-1,1.5063537E0,-4.2751737E-2,1.0620977E-1],"split_indices":[1,0,2,3,0,0,1,0,0],"split_type":[0,0,0,0,0,0,0,0,0],"sum_hessian":[7.103731E1,5.690214E1,1.4135166E1,1.255258E1,1.5825863E0,9.880322E0,2.6722567E0,1.0878124E0,1.5844443E0],"tree_param":{"num_deleted":"0","num_feature":"6","num_nodes":"9","size_leaf_vector":"1"}},{"base_weights":[1.102128E-1,-1.4979838E-1,3.6863834E-1,4.0633845E-1,-8.6323686E-2,4.6798012E-1,2.0325305E-1,-2.1837413E-1,1.1188796E-1,5.0180995E-1,5.387695E-2,-4.4553158E-1,4.164459E-1,-1.280897E-1,1.997594E-1,3.453896E-1,1.5815644E-1,-1.11773275E-1,2.3293859E-1,-5.7166996E-3,-1.6929218E-1,1.5234905E-1,8.548248E-2,1.0131925E-1,-1.576926E-2,1.5150954E-1,-1.04727216E-1,1.24637485E-1,-8.375906E-2,9.322625E-2,-1.0582344E-1],"categories":[],"categories_nodes":[],"categories_segments":[],"categories_sizes":[],"default_left":[0,0,0,1,0,0,0,1,0,0,0,0,0,0,0,1,0,0,0,0,0,0,0,0,0,0,0,0,0,0,0],"id":46,"left_children":[1,-1,3,5,7,9,11,13,-1,15,17,19,21,-1,23,25,-1,-1,27,-1,-1,-1,29,-1,-1,-1,-1,-1,-1,-1,-1],"loss_changes":[2.4060217E1,0E0,1.8707037E0,1.1442909E0,6.281516E-1,1.0262318E0,3.6187358E0,7.509518E-1,0E0,9.3351364E-2,6.059367E-1,3.2469344E-1,5.372646E-1,0E0,1.2990151E-1,1.5716707E0,0E0,0E0,6.210774E-1,0E0,0E0,0E0,6.384175E-1,0E0,0E0,0E0,0E0,0E0,0E0,0E0,0E0],"parents":[2147483647,0,0,2,2,3,3,4,4,5,5,6,6,7,7,9,9,10,10,11,11,12,12,14,14,15,15,18,18,22,22],"right_children":[2,-1,4,6,8,10,12,14,-1,16,18,20,22,-1,24,26,-1,-1,28,-1,-1,-1,30,-1,-1,-1,-1,-1,-1,-1,-1],"split_conditions":[3.8073254E-1,-1.4979838E-1,1.2812295E0,-1.3970295E-1,-5.548087E-2,1.5176052E-2,5.323162E-1,7.002762E-2,1.1188796E-1,3.9348957E-1,3.9348957E-1,4.0762886E-2,4.8461127E-1,-1.280897E-1,1.4313123E0,-2.5920057E-1,1.5815644E-1,-1.11773275E-1,9.112223E-1,-5.7166996E-3,-1.6929218E-1,1.5234905E-1,-5.6052476E-2,1.0131925E-1,-1.576926E-2,1.5150954E-1,-1.04727216E-1,1.24637485E-1,-8.375906E-2,9.322625E-2,-1.0582344E-1],"split_indices":[1,0,1,3,2,2,1,3,0,1,1,3,3,0,1,3,0,0,2,0,0,0,2,0,0,0,0,0,0,0,0],"split_type":[0,0,0,0,0,0,0,0,0,0,0,0,0,0,0,0,0,0,0,0,0,0,0,0,0,0,0,0,0,0,0],"sum_hessian":[1.5057448E2,4.455402E1,1.0602045E2,9.800612E1,8.014336E0,7.418477E1,2.3821348E1,6.6320586E0,1.3822767E0,6.838621E1,5.7985573E0,5.6221914E0,1.8199156E1,4.4106326E0,2.221426E0,1.1585818E1,5.6800392E1,1.3951457E0,4.403412E0,1.4775031E0,4.1446886E0,1.3842597E1,4.3565593E0,1.2173125E0,1.0041136E0,9.642143E0,1.9436752E0,3.3855944E0,1.0178175E0,3.0695395E0,1.28702E0],"tree_param":{"num_deleted":"0","num_feature":"6","num_nodes":"31","size_leaf_vector":"1"}},{"base_weights":[1.621339E-1,2.967105E-1,-2.8621936E-1,-4.284205E-1,4.364787E-1,-1.471188E-1,9.178907E-2,-1.449812E-1,-3.0577952E-2,4.572498E-1,-2.0811008E-1,4.208735E-1,-2.7184823E-1,1.0063037E-1,-9.622046E-2,4.9098718E-1,1.9654357E-1,-1.2566443E-1,1.2653744E-2,1.3245996E-2,4.7936344E-1,-1.3044088E-1,1.0654654E-1,1.5834057E-1,3.055023E-1,-1.1378818E-1,3.8593164E-1,1.6720577E-1,6.0642056E-2,-4.702349E-2,1.4877146E-1,3.6579538E-2,1.4360912E-1],"categories":[],"categories_nodes":[],"categories_segments":[],"categories_sizes":[],"default_left":[0,0,1,0,1,0,0,0,0,0,0,1,0,0,0,1,0,0,0,0,0,0,0,0,0,0,1,0,0,0,0,0,0],"id":47,"left_children":[1,3,5,7,9,-1,11,-1,13,15,17,19,21,-1,-1,23,25,-1,-1,-1,27,-1,-1,-1,29,-1,31,-1,-1,-1,-1,-1,-1],"loss_changes":[9.81225E0,1.2803783E1,2.9568255E0,4.352262E-1,1.4991779E0,0E0,1.7985631E0,0E0,4.8631677E-1,7.998028E-1,2.2661966E-1,1.5026665E-1,8.996083E-1,0E0,0E0,4.50325E-1,1.6016045E0,0E0,0E0,0E0,3.074789E-2,0E0,0E0,0E0,1.5921068E0,0E0,1.9968104E-1,0E0,0E0,0E0,0E0,0E0,0E0],"parents":[2147483647,0,0,1,1,2,2,3,3,4,4,6,6,8,8,9,9,10,10,11,11,12,12,15,15,16,16,20,20,24,24,26,26],"right_children":[2,4,6,8,10,-1,12,-1,14,16,18,20,22,-1,-1,24,26,-1,-1,-1,28,-1,-1,-1,30,-1,32,-1,-1,-1,-1,-1,-1],"split_conditions":[3.9348957E-1,-4.4472295E-1,7.002762E-2,-5.1976436E-1,8.333493E-1,-1.471188E-1,6.306204E-1,-1.449812E-1,-3.421173E-1,3.8073254E-1,3.5611248E-1,-3.734922E-2,-3.9405473E-2,1.0063037E-1,-9.622046E-2,-5.1908754E-2,-2.7139422E-1,-1.2566443E-1,1.2653744E-2,1.3245996E-2,5.323162E-1,-1.3044088E-1,1.0654654E-1,1.5834057E-1,-2.6987648E-1,-1.1378818E-1,-2.5920057E-1,1.6720577E-1,6.0642056E-2,-4.702349E-2,1.4877146E-1,3.6579538E-2,1.4360912E-1],"split_indices":[1,1,3,1,3,0,1,0,3,1,0,5,4,0,0,3,3,0,0,0,1,0,0,0,1,0,3,0,0,0,0,0,0],"split_type":[0,0,0,0,0,0,0,0,0,0,0,0,0,0,0,0,0,0,0,0,0,0,0,0,0,0,0,0,0,0,0,0,0],"sum_hessian":[1.6021431E2,1.23486984E2,3.672732E1,1.9621824E1,1.03865166E2,2.3653734E1,1.3073588E1,1.7055653E1,2.566172E0,1.0090428E2,2.9608831E0,6.780224E0,6.293365E0,1.0657535E0,1.5004184E0,8.856056E1,1.234372E1,1.24167E0,1.7192131E0,1.1470742E0,5.6331496E0,5.238457E0,1.0549074E0,7.2354294E1,1.6206266E1,2.806816E0,9.536904E0,3.6077313E0,2.0254183E0,4.77955E0,1.1426717E1,3.081556E0,6.4553485E0],"tree_param":{"num_deleted":"0","num_feature":"6","num_nodes":"33","size_leaf_vector":"1"}},{"base_weights":[-3.5551396E-1,2.3186038E-1,-4.6091303E-1,-1.5485488E-1,3.8461077E-1,-4.8437613E-1,5.3977888E-2,5.628516E-2,-1.0488295E-1,1.1724651E-1,1.4000875E-1,-1.4979029E-1,3.5155583E-2,9.479471E-2,-4.7678296E-2],"categories":[],"categories_nodes":[],"categories_segments":[],"categories_sizes":[],"default_left":[0,1,1,0,0,0,0,0,0,0,0,0,0,0,0],"id":48,"left_children":[1,3,5,7,9,11,-1,-1,-1,13,-1,-1,-1,-1,-1],"loss_changes":[4.4197826E0,7.2495186E-1,9.803152E-1,3.2587904E-1,1.2879598E-1,5.7542324E-1,0E0,0E0,0E0,2.3132494E-1,0E0,0E0,0E0,0E0,0E0],"parents":[2147483647,0,0,1,1,2,2,3,3,4,4,5,5,9,9],"right_children":[2,4,6,8,10,12,-1,-1,-1,14,-1,-1,-1,-1,-1],"split_conditions":[-1.9455512E0,-8.117349E-2,4.386575E0,-3.4463794E0,-4.0065832E-2,1.1229779E1,5.3977888E-2,5.628516E-2,-1.0488295E-1,-4.1967936E0,1.4000875E-1,-1.4979029E-1,3.5155583E-2,9.479471E-2,-4.7678296E-2],"split_indices":[1,3,3,1,4,2,0,0,0,1,0,0,0,0,0],"split_type":[0,0,0,0,0,0,0,0,0,0,0,0,0,0,0],"sum_hessian":[6.8665726E1,1.0264311E1,5.8401413E1,2.9024513E0,7.3618593E0,5.657421E1,1.8272011E0,1.0654798E0,1.8369716E0,2.299704E0,5.0621557E0,5.5370457E1,1.2037566E0,1.253523E0,1.0461811E0],"tree_param":{"num_deleted":"0","num_feature":"6","num_nodes":"15","size_leaf_vector":"1"}},{"base_weights":[3.777944E-2,4.2921963E-1,-3.4166104E-1,-6.573175E-2,4.5894322E-1,-4.4381487E-1,1.3590908E-1,6.326904E-2,-2.6226616E-1,4.7658816E-1,5.836468E-2,-4.8140404E-1,2.3854487E-1,2.9612908E-1,-1.11743756E-1,-2.285698E-2,-9.50504E-2,5.0872165E-1,2.149469E-1,-2.8378924E-2,4.647526E-2,-5.721758E-2,-1.4988394E-1,1.140266E-1,1.6298847E-3,-1.5264693E-1,4.3540555E-1,1.5796506E-1,1.8087873E-1,-7.6867044E-2,3.9277488E-1,-8.38376E-2,6.332604E-2,-7.943147E-2,9.440983E-3,1.6526139E-1,2.0857827E-1,-2.3877533E-2,1.0602814E-1,5.6277525E-2,1.5277644E-1,-8.204517E-2,1.3559406E-1],"categories":[],"categories_nodes":[],"categories_segments":[],"categories_sizes":[],"default_left":[0,0,1,0,1,0,0,0,0,0,0,0,0,0,0,0,0,1,1,0,0,0,0,0,0,0,0,0,0,0,0,0,0,0,0,0,0,0,0,0,0,0,0],"id":49,"left_children":[1,3,5,7,9,11,13,-1,15,17,19,21,23,25,-1,-1,-1,27,29,-1,-1,31,-1,-1,-1,33,35,-1,37,-1,39,-1,-1,-1,-1,-1,41,-1,-1,-1,-1,-1,-1],"loss_changes":[1.8957174E1,9.5377827E-1,3.224824E0,2.962293E-1,3.9167595E-1,1.4914341E0,1.1036817E0,0E0,6.692052E-3,3.6740112E-1,6.846506E-2,3.6687946E-1,1.1245653E-1,6.8089175E-1,0E0,0E0,0E0,1.9567108E-1,7.654246E-1,0E0,0E0,2.5198904E-1,0E0,0E0,0E0,7.168163E-2,8.8382244E-2,0E0,2.1196401E-1,0E0,5.1570952E-2,0E0,0E0,0E0,0E0,0E0,6.196508E-1,0E0,0E0,0E0,0E0,0E0,0E0],"parents":[2147483647,0,0,1,1,2,2,3,3,4,4,5,5,6,6,8,8,9,9,10,10,11,11,12,12,13,13,17,17,18,18,21,21,25,25,26,26,28,28,30,30,36,36],"right_children":[2,4,6,8,10,12,14,-1,16,18,20,22,24,26,-1,-1,-1,28,30,-1,-1,32,-1,-1,-1,34,36,-1,38,-1,40,-1,-1,-1,-1,-1,42,-1,-1,-1,-1,-1,-1],"split_conditions":[-3.9219397E-1,-3.2962966E0,3.6267492E-1,-5.6364745E-2,4.1427026E0,4.923583E0,5.323162E-1,6.326904E-2,-3.4512915E-2,-5.1976436E-1,-1.7204269E0,-2.9464012E-1,1.2820222E1,-4.138689E-2,-1.11743756E-1,-2.285698E-2,-9.50504E-2,-3.6984116E-2,-3.0797514E-1,-2.8378924E-2,4.647526E-2,4.5640342E-2,-1.4988394E-1,1.140266E-1,1.6298847E-3,1.0699059E0,-9.2028335E-2,1.5796506E-1,-2.1804307E0,-7.6867044E-2,-1.7506449E-1,-8.38376E-2,6.332604E-2,-7.943147E-2,9.440983E-3,1.6526139E-1,1.0699059E0,-2.3877533E-2,1.0602814E-1,5.6277525E-2,1.5277644E-1,-8.204517E-2,1.3559406E-1],"split_indices":[1,1,3,2,3,2,1,0,5,1,1,1,2,4,0,0,0,4,3,0,0,3,0,0,0,3,1,0,1,0,3,0,0,0,0,0,3,0,0,0,0,0,0],"split_type":[0,0,0,0,0,0,0,0,0,0,0,0,0,0,0,0,0,0,0,0,0,0,0,0,0,0,0,0,0,0,0,0,0,0,0,0,0,0,0,0,0,0,0],"sum_hessian":[1.2564612E2,6.1780567E1,6.386555E1,3.4313295E0,5.8349236E1,5.2669952E1,1.1195597E1,1.3948936E0,2.0364358E0,5.5705723E1,2.643512E0,5.0199135E1,2.4708185E0,8.830236E0,2.3653603E0,1.0051485E0,1.0312874E0,4.8771507E1,6.9342175E0,1.0307845E0,1.6127274E0,2.2367046E0,4.796243E1,1.1450527E0,1.3257658E0,2.068648E0,6.761588E0,4.5681194E1,3.0903137E0,1.779207E0,5.15501E0,1.2006295E0,1.036075E0,1.0134243E0,1.055224E0,3.5340152E0,3.227573E0,1.4460922E0,1.6442213E0,2.812032E0,2.3429785E0,1.0414237E0,2.1861494E0],"tree_param":{"num_deleted":"0","num_feature":"6","num_nodes":"43","size_leaf_vector":"1"}},{"base_weights":[-3.091652E-1,-1.484768E-1,3.694006E-1,4.1881615E-1,-4.7419473E-4,1.4267926E-1,1.4788209E-1,-3.9809853E-2,9.743773E-2],"categories":[],"categories_nodes":[],"categories_segments":[],"categories_sizes":[],"default_left":[0,0,0,1,0,0,0,0,0],"id":50,"left_children":[1,-1,3,5,-1,-1,7,-1,-1],"loss_changes":[7.2306914E0,0E0,2.3145449E-1,1.0063565E-1,0E0,0E0,2.1071672E-1,0E0,0E0],"parents":[2147483647,0,0,2,2,3,3,6,6],"right_children":[2,-1,4,6,-1,-1,8,-1,-1],"split_conditions":[1.2812295E0,-1.484768E-1,-5.571904E-2,7.002762E-2,-4.7419473E-4,1.4267926E-1,1.5063537E0,-3.9809853E-2,9.743773E-2],"split_indices":[1,0,2,3,0,0,1,0,0],"split_type":[0,0,0,0,0,0,0,0,0],"sum_hessian":[5.491388E1,4.3324444E1,1.1589433E1,1.0113368E1,1.4760652E0,7.736567E0,2.376801E0,1.015737E0,1.361064E0],"tree_param":{"num_deleted":"0","num_feature":"6","num_nodes":"9","size_leaf_vector":"1"}},{"base_weights":[1.03425704E-1,-1.4807163E-1,3.4819648E-1,3.7760374E-1,-1.7184708E-1,4.3533522E-1,1.7899907E-1,-1.12658486E-1,5.363201E-2,4.5073837E-1,-6.698569E-2,-1.4703445E-1,3.8756967E-1,-2.8009044E-2,4.6809727E-1,1.4714043E-1,5.5700656E-2,1.4424677E-1,2.7675299E-2,7.989628E-2,-9.8219804E-2],"categories":[],"categories_nodes":[],"categories_segments":[],"categories_sizes":[],"default_left":[0,0,0,1,1,0,0,0,0,0,0,0,0,0,0,0,0,0,0,0,0],"id":51,"left_children":[1,-1,3,5,7,9,11,-1,-1,13,-1,-1,15,-1,17,-1,19,-1,-1,-1,-1],"loss_changes":[1.7526365E1,0E0,1.3619719E0,8.4608173E-1,4.4039398E-1,7.269869E-1,2.959924E0,0E0,0E0,6.16642E-1,0E0,0E0,5.084739E-1,0E0,2.375927E-1,0E0,4.7785002E-1,0E0,0E0,0E0,0E0],"parents":[2147483647,0,0,2,2,3,3,4,4,5,5,6,6,9,9,12,12,14,14,16,16],"right_children":[2,-1,4,6,8,10,12,-1,-1,14,-1,-1,16,-1,18,-1,20,-1,-1,-1,-1],"split_conditions":[3.8073254E-1,-1.4807163E-1,1.3562709E0,-9.824458E-2,2.8951308E-1,7.757304E-1,5.323162E-1,-1.12658486E-1,5.363201E-2,-1.6621584E0,-6.698569E-2,-1.4703445E-1,4.8461127E-1,-2.8009044E-2,1.2812295E0,1.4714043E-1,-5.6052476E-2,1.4424677E-1,2.7675299E-2,7.989628E-2,-9.8219804E-2],"split_indices":[1,0,1,3,3,2,1,0,0,0,0,0,3,0,1,0,2,0,0,0,0],"split_type":[0,0,0,0,0,0,0,0,0,0,0,0,0,0,0,0,0,0,0,0,0],"sum_hessian":[1.1776268E2,3.3947647E1,8.381503E1,7.9588394E1,4.226641E0,6.0740154E1,1.8848238E1,2.6286027E0,1.5980383E0,5.9660507E1,1.079647E0,4.158264E0,1.4689973E1,1.7091777E0,5.795133E1,1.0848439E1,3.841534E0,5.5783333E1,2.1679962E0,2.6754532E0,1.1660808E0],"tree_param":{"num_deleted":"0","num_feature":"6","num_nodes":"21","size_leaf_vector":"1"}},{"base_weights":[1.540163E-1,2.8197265E-1,-2.6523024E-1,-4.1385886E-1,4.1635466E-1,-1.445328E-1,9.2131086E-2,-1.418687E-1,-3.295583E-2,4.3925917E-1,-1.9172347E-1,3.736628E-1,-2.4590953E-1,7.501729E-2,-8.626594E-2,4.7388303E-1,1.8667807E-1,-1.15462646E-1,1.2412327E-2,4.2969298E-1,6.1409026E-3,9.237005E-2,-1.2445894E-1,1.5499805E-1,2.735137E-1,-1.05621934E-1,3.5676447E-1,1.6313165E-1,3.331682E-2,-4.3025468E-2,1.429E-1,3.320876E-2,1.3602746E-1],"categories":[],"categories_nodes":[],"categories_segments":[],"categories_sizes":[],"default_left":[0,0,1,0,1,0,0,0,1,0,0,0,1,0,0,1,0,0,0,0,0,0,0,0,0,0,1,0,0,0,0,0,0],"id":52,"left_children":[1,3,5,7,9,-1,11,-1,13,15,17,19,21,-1,-1,23,25,-1,-1,27,-1,-1,-1,-1,29,-1,31,-1,-1,-1,-1,-1,-1],"loss_changes":[6.903906E0,9.337736E0,2.3878462E0,3.5246873E-1,1.2353601E0,0E0,1.2592169E0,0E0,3.0761436E-1,6.107683E-1,1.8234676E-1,1.3149542E-1,7.0567465E-1,0E0,0E0,4.5580673E-1,1.1600568E0,0E0,0E0,1.602006E-1,0E0,0E0,0E0,0E0,1.2844272E0,0E0,1.657002E-1,0E0,0E0,0E0,0E0,0E0,0E0],"parents":[2147483647,0,0,1,1,2,2,3,3,4,4,6,6,8,8,9,9,10,10,11,11,12,12,15,15,16,16,19,19,24,24,26,26],"right_children":[2,4,6,8,10,-1,12,-1,14,16,18,20,22,-1,-1,24,26,-1,-1,28,-1,-1,-1,-1,30,-1,32,-1,-1,-1,-1,-1,-1],"split_conditions":[3.9348957E-1,-4.4472295E-1,7.002762E-2,-5.1976436E-1,8.333493E-1,-1.445328E-1,6.306204E-1,-1.418687E-1,-3.0797514E-1,3.8073254E-1,-9.2028335E-2,6.821482E-1,-4.1389965E-2,7.501729E-2,-8.626594E-2,-5.1908754E-2,-2.7139422E-1,-1.15462646E-1,1.2412327E-2,5.323162E-1,6.1409026E-3,9.237005E-2,-1.2445894E-1,1.5499805E-1,-2.6987648E-1,-1.05621934E-1,-2.5920057E-1,1.6313165E-1,3.331682E-2,-4.3025468E-2,1.429E-1,3.320876E-2,1.3602746E-1],"split_indices":[1,1,3,1,3,0,1,0,3,1,1,3,4,0,0,3,3,0,0,1,0,0,0,0,1,0,3,0,0,0,0,0,0],"split_type":[0,0,0,0,0,0,0,0,0,0,0,0,0,0,0,0,0,0,0,0,0,0,0,0,0,0,0,0,0,0,0,0,0],"sum_hessian":[1.26301445E2,9.701835E1,2.9283098E1,1.5367185E1,8.165116E1,1.8017258E1,1.126584E1,1.3095915E1,2.2712696E0,7.8954796E1,2.6963682E0,6.089183E0,5.1766567E0,1.0840535E0,1.1872162E0,6.866589E1,1.0288898E1,1.1184522E0,1.577916E0,5.068523E0,1.0206602E0,1.0178549E0,4.158802E0,5.5284588E1,1.3381309E1,2.2120934E0,8.076805E0,3.211998E0,1.8565248E0,4.475009E0,8.9063E0,2.8829286E0,5.1938767E0],"tree_param":{"num_deleted":"0","num_feature":"6","num_nodes":"33","size_leaf_vector":"1"}},{"base_weights":[-3.353091E-1,2.1574065E-1,-4.4657734E-1,-1.7790961E-1,3.4354696E-1,-4.7563696E-1,5.0064962E-2,5.272454E-3,-8.562924E-2,7.684493E-2,1.2952124E-1,-1.484132E-1,3.2133557E-2,8.6487845E-2,-5.1016267E-2],"categories":[],"categories_nodes":[],"categories_segments":[],"categories_sizes":[],"default_left":[0,1,1,0,0,0,0,0,0,0,0,0,0,0,0],"id":53,"left_children":[1,3,5,7,9,11,-1,-1,-1,13,-1,-1,-1,-1,-1],"loss_changes":[3.4771867E0,5.6109095E-1,9.030142E-1,7.005836E-2,1.512981E-1,5.4619217E-1,0E0,0E0,0E0,2.1428654E-1,0E0,0E0,0E0,0E0,0E0],"parents":[2147483647,0,0,1,1,2,2,3,3,4,4,5,5,9,9],"right_children":[2,4,6,8,10,12,-1,-1,-1,14,-1,-1,-1,-1,-1],"split_conditions":[-1.9455512E0,-1.4945786E-1,4.386575E0,-2.7710066E0,-4.0065832E-2,1.1229779E1,5.0064962E-2,5.272454E-3,-8.562924E-2,-4.1967936E0,1.2952124E-1,-1.484132E-1,3.2133557E-2,8.6487845E-2,-5.1016267E-2],"split_indices":[1,3,3,1,4,2,0,0,0,1,0,0,0,0,0],"split_type":[0,0,0,0,0,0,0,0,0,0,0,0,0,0,0],"sum_hessian":[5.4139507E1,8.937604E0,4.5201904E1,2.0944774E0,6.8431273E0,4.3372036E1,1.8298677E0,1.0400697E0,1.0544077E0,2.1655402E0,4.6775866E0,4.2143723E1,1.2283115E0,1.0762073E0,1.089333E0],"tree_param":{"num_deleted":"0","num_feature":"6","num_nodes":"15","size_leaf_vector":"1"}},{"base_weights":[3.8483717E-2,4.060298E-1,-3.2170007E-1,-6.243004E-2,4.3793646E-1,-4.2948565E-1,1.2490398E-1,5.688135E-2,-7.2488144E-2,4.5831186E-1,5.222123E-2,-4.728801E-1,2.0876285E-1,2.7162436E-1,-1.0496028E-1,4.9298942E-1,2.0287867E-1,3.4825776E-2,-7.2860885E-3,-1.3121908E-2,-1.4829566E-1,1.0616417E-1,-4.9767205E-3,-4.4291675E-2,4.0380466E-1,1.5408956E-1,1.5910499E-1,-8.7867826E-2,3.4430736E-1,2.5596192E-2,4.4340777E-1,-2.0047719E-2,9.536498E-2,4.6878744E-2,1.4310364E-1,1.5113717E-1,4.333255E-2],"categories":[],"categories_nodes":[],"categories_segments":[],"categories_sizes":[],"default_left":[0,0,1,0,1,0,0,0,0,0,0,0,0,0,0,1,0,0,0,0,0,0,0,0,1,0,0,0,1,0,1,0,0,0,0,0,0],"id":54,"left_children":[1,3,5,7,9,11,13,-1,-1,15,17,19,21,23,-1,25,27,-1,-1,-1,-1,-1,-1,-1,29,-1,31,-1,33,-1,35,-1,-1,-1,-1,-1,-1],"loss_changes":[1.3497676E1,7.8092575E-1,2.5353508E0,2.3054117E-1,3.4801483E-1,1.2552271E0,8.472099E-1,0E0,0E0,2.9702282E-1,1.9936632E-2,3.40909E-1,1.1549021E-1,5.4795337E-1,0E0,1.8546581E-1,5.9566975E-1,0E0,0E0,0E0,0E0,0E0,0E0,0E0,5.004728E-2,0E0,1.5418683E-1,0E0,7.395208E-2,0E0,3.479743E-2,0E0,0E0,0E0,0E0,0E0,0E0],"parents":[2147483647,0,0,1,1,2,2,3,3,4,4,5,5,6,6,9,9,10,10,11,11,12,12,13,13,15,15,16,16,24,24,26,26,28,28,30,30],"right_children":[2,4,6,8,10,12,14,-1,-1,16,18,20,22,24,-1,26,28,-1,-1,-1,-1,-1,-1,-1,30,-1,32,-1,34,-1,36,-1,-1,-1,-1,-1,-1],"split_conditions":[-3.9219397E-1,-3.2962966E0,3.6267492E-1,-5.6364745E-2,4.1427026E0,4.923583E0,5.323162E-1,5.688135E-2,-7.2488144E-2,-5.1976436E-1,-8.909434E-2,-2.9464012E-1,2.670711E-1,-4.138689E-2,-1.0496028E-1,-3.6984116E-2,